{
  "learner": {
    "attributes": {},
    "feature_names": [],
    "feature_types": [],
    "gradient_booster": {
      "model": {
        "gbtree_model_param": { "num_parallel_tree": "1", "num_trees": "2200" },
        "iteration_indptr": [
          0, 22, 44, 66, 88, 110, 132, 154, 176, 198, 220, 242, 264, 286, 308, 330, 352, 374, 396,
          418, 440, 462, 484, 506, 528, 550, 572, 594, 616, 638, 660, 682, 704, 726, 748, 770, 792,
          814, 836, 858, 880, 902, 924, 946, 968, 990, 1012, 1034, 1056, 1078, 1100, 1122, 1144,
          1166, 1188, 1210, 1232, 1254, 1276, 1298, 1320, 1342, 1364, 1386, 1408, 1430, 1452, 1474,
          1496, 1518, 1540, 1562, 1584, 1606, 1628, 1650, 1672, 1694, 1716, 1738, 1760, 1782, 1804,
          1826, 1848, 1870, 1892, 1914, 1936, 1958, 1980, 2002, 2024, 2046, 2068, 2090, 2112, 2134,
          2156, 2178, 2200
        ],
        "tree_info": [
          0, 1, 2, 3, 4, 5, 6, 7, 8, 9, 10, 11, 12, 13, 14, 15, 16, 17, 18, 19, 20, 21, 0, 1, 2, 3,
          4, 5, 6, 7, 8, 9, 10, 11, 12, 13, 14, 15, 16, 17, 18, 19, 20, 21, 0, 1, 2, 3, 4, 5, 6, 7,
          8, 9, 10, 11, 12, 13, 14, 15, 16, 17, 18, 19, 20, 21, 0, 1, 2, 3, 4, 5, 6, 7, 8, 9, 10,
          11, 12, 13, 14, 15, 16, 17, 18, 19, 20, 21, 0, 1, 2, 3, 4, 5, 6, 7, 8, 9, 10, 11, 12, 13,
          14, 15, 16, 17, 18, 19, 20, 21, 0, 1, 2, 3, 4, 5, 6, 7, 8, 9, 10, 11, 12, 13, 14, 15, 16,
          17, 18, 19, 20, 21, 0, 1, 2, 3, 4, 5, 6, 7, 8, 9, 10, 11, 12, 13, 14, 15, 16, 17, 18, 19,
          20, 21, 0, 1, 2, 3, 4, 5, 6, 7, 8, 9, 10, 11, 12, 13, 14, 15, 16, 17, 18, 19, 20, 21, 0,
          1, 2, 3, 4, 5, 6, 7, 8, 9, 10, 11, 12, 13, 14, 15, 16, 17, 18, 19, 20, 21, 0, 1, 2, 3, 4,
          5, 6, 7, 8, 9, 10, 11, 12, 13, 14, 15, 16, 17, 18, 19, 20, 21, 0, 1, 2, 3, 4, 5, 6, 7, 8,
          9, 10, 11, 12, 13, 14, 15, 16, 17, 18, 19, 20, 21, 0, 1, 2, 3, 4, 5, 6, 7, 8, 9, 10, 11,
          12, 13, 14, 15, 16, 17, 18, 19, 20, 21, 0, 1, 2, 3, 4, 5, 6, 7, 8, 9, 10, 11, 12, 13, 14,
          15, 16, 17, 18, 19, 20, 21, 0, 1, 2, 3, 4, 5, 6, 7, 8, 9, 10, 11, 12, 13, 14, 15, 16, 17,
          18, 19, 20, 21, 0, 1, 2, 3, 4, 5, 6, 7, 8, 9, 10, 11, 12, 13, 14, 15, 16, 17, 18, 19, 20,
          21, 0, 1, 2, 3, 4, 5, 6, 7, 8, 9, 10, 11, 12, 13, 14, 15, 16, 17, 18, 19, 20, 21, 0, 1, 2,
          3, 4, 5, 6, 7, 8, 9, 10, 11, 12, 13, 14, 15, 16, 17, 18, 19, 20, 21, 0, 1, 2, 3, 4, 5, 6,
          7, 8, 9, 10, 11, 12, 13, 14, 15, 16, 17, 18, 19, 20, 21, 0, 1, 2, 3, 4, 5, 6, 7, 8, 9, 10,
          11, 12, 13, 14, 15, 16, 17, 18, 19, 20, 21, 0, 1, 2, 3, 4, 5, 6, 7, 8, 9, 10, 11, 12, 13,
          14, 15, 16, 17, 18, 19, 20, 21, 0, 1, 2, 3, 4, 5, 6, 7, 8, 9, 10, 11, 12, 13, 14, 15, 16,
          17, 18, 19, 20, 21, 0, 1, 2, 3, 4, 5, 6, 7, 8, 9, 10, 11, 12, 13, 14, 15, 16, 17, 18, 19,
          20, 21, 0, 1, 2, 3, 4, 5, 6, 7, 8, 9, 10, 11, 12, 13, 14, 15, 16, 17, 18, 19, 20, 21, 0,
          1, 2, 3, 4, 5, 6, 7, 8, 9, 10, 11, 12, 13, 14, 15, 16, 17, 18, 19, 20, 21, 0, 1, 2, 3, 4,
          5, 6, 7, 8, 9, 10, 11, 12, 13, 14, 15, 16, 17, 18, 19, 20, 21, 0, 1, 2, 3, 4, 5, 6, 7, 8,
          9, 10, 11, 12, 13, 14, 15, 16, 17, 18, 19, 20, 21, 0, 1, 2, 3, 4, 5, 6, 7, 8, 9, 10, 11,
          12, 13, 14, 15, 16, 17, 18, 19, 20, 21, 0, 1, 2, 3, 4, 5, 6, 7, 8, 9, 10, 11, 12, 13, 14,
          15, 16, 17, 18, 19, 20, 21, 0, 1, 2, 3, 4, 5, 6, 7, 8, 9, 10, 11, 12, 13, 14, 15, 16, 17,
          18, 19, 20, 21, 0, 1, 2, 3, 4, 5, 6, 7, 8, 9, 10, 11, 12, 13, 14, 15, 16, 17, 18, 19, 20,
          21, 0, 1, 2, 3, 4, 5, 6, 7, 8, 9, 10, 11, 12, 13, 14, 15, 16, 17, 18, 19, 20, 21, 0, 1, 2,
          3, 4, 5, 6, 7, 8, 9, 10, 11, 12, 13, 14, 15, 16, 17, 18, 19, 20, 21, 0, 1, 2, 3, 4, 5, 6,
          7, 8, 9, 10, 11, 12, 13, 14, 15, 16, 17, 18, 19, 20, 21, 0, 1, 2, 3, 4, 5, 6, 7, 8, 9, 10,
          11, 12, 13, 14, 15, 16, 17, 18, 19, 20, 21, 0, 1, 2, 3, 4, 5, 6, 7, 8, 9, 10, 11, 12, 13,
          14, 15, 16, 17, 18, 19, 20, 21, 0, 1, 2, 3, 4, 5, 6, 7, 8, 9, 10, 11, 12, 13, 14, 15, 16,
          17, 18, 19, 20, 21, 0, 1, 2, 3, 4, 5, 6, 7, 8, 9, 10, 11, 12, 13, 14, 15, 16, 17, 18, 19,
          20, 21, 0, 1, 2, 3, 4, 5, 6, 7, 8, 9, 10, 11, 12, 13, 14, 15, 16, 17, 18, 19, 20, 21, 0,
          1, 2, 3, 4, 5, 6, 7, 8, 9, 10, 11, 12, 13, 14, 15, 16, 17, 18, 19, 20, 21, 0, 1, 2, 3, 4,
          5, 6, 7, 8, 9, 10, 11, 12, 13, 14, 15, 16, 17, 18, 19, 20, 21, 0, 1, 2, 3, 4, 5, 6, 7, 8,
          9, 10, 11, 12, 13, 14, 15, 16, 17, 18, 19, 20, 21, 0, 1, 2, 3, 4, 5, 6, 7, 8, 9, 10, 11,
          12, 13, 14, 15, 16, 17, 18, 19, 20, 21, 0, 1, 2, 3, 4, 5, 6, 7, 8, 9, 10, 11, 12, 13, 14,
          15, 16, 17, 18, 19, 20, 21, 0, 1, 2, 3, 4, 5, 6, 7, 8, 9, 10, 11, 12, 13, 14, 15, 16, 17,
          18, 19, 20, 21, 0, 1, 2, 3, 4, 5, 6, 7, 8, 9, 10, 11, 12, 13, 14, 15, 16, 17, 18, 19, 20,
          21, 0, 1, 2, 3, 4, 5, 6, 7, 8, 9, 10, 11, 12, 13, 14, 15, 16, 17, 18, 19, 20, 21, 0, 1, 2,
          3, 4, 5, 6, 7, 8, 9, 10, 11, 12, 13, 14, 15, 16, 17, 18, 19, 20, 21, 0, 1, 2, 3, 4, 5, 6,
          7, 8, 9, 10, 11, 12, 13, 14, 15, 16, 17, 18, 19, 20, 21, 0, 1, 2, 3, 4, 5, 6, 7, 8, 9, 10,
          11, 12, 13, 14, 15, 16, 17, 18, 19, 20, 21, 0, 1, 2, 3, 4, 5, 6, 7, 8, 9, 10, 11, 12, 13,
          14, 15, 16, 17, 18, 19, 20, 21, 0, 1, 2, 3, 4, 5, 6, 7, 8, 9, 10, 11, 12, 13, 14, 15, 16,
          17, 18, 19, 20, 21, 0, 1, 2, 3, 4, 5, 6, 7, 8, 9, 10, 11, 12, 13, 14, 15, 16, 17, 18, 19,
          20, 21, 0, 1, 2, 3, 4, 5, 6, 7, 8, 9, 10, 11, 12, 13, 14, 15, 16, 17, 18, 19, 20, 21, 0,
          1, 2, 3, 4, 5, 6, 7, 8, 9, 10, 11, 12, 13, 14, 15, 16, 17, 18, 19, 20, 21, 0, 1, 2, 3, 4,
          5, 6, 7, 8, 9, 10, 11, 12, 13, 14, 15, 16, 17, 18, 19, 20, 21, 0, 1, 2, 3, 4, 5, 6, 7, 8,
          9, 10, 11, 12, 13, 14, 15, 16, 17, 18, 19, 20, 21, 0, 1, 2, 3, 4, 5, 6, 7, 8, 9, 10, 11,
          12, 13, 14, 15, 16, 17, 18, 19, 20, 21, 0, 1, 2, 3, 4, 5, 6, 7, 8, 9, 10, 11, 12, 13, 14,
          15, 16, 17, 18, 19, 20, 21, 0, 1, 2, 3, 4, 5, 6, 7, 8, 9, 10, 11, 12, 13, 14, 15, 16, 17,
          18, 19, 20, 21, 0, 1, 2, 3, 4, 5, 6, 7, 8, 9, 10, 11, 12, 13, 14, 15, 16, 17, 18, 19, 20,
          21, 0, 1, 2, 3, 4, 5, 6, 7, 8, 9, 10, 11, 12, 13, 14, 15, 16, 17, 18, 19, 20, 21, 0, 1, 2,
          3, 4, 5, 6, 7, 8, 9, 10, 11, 12, 13, 14, 15, 16, 17, 18, 19, 20, 21, 0, 1, 2, 3, 4, 5, 6,
          7, 8, 9, 10, 11, 12, 13, 14, 15, 16, 17, 18, 19, 20, 21, 0, 1, 2, 3, 4, 5, 6, 7, 8, 9, 10,
          11, 12, 13, 14, 15, 16, 17, 18, 19, 20, 21, 0, 1, 2, 3, 4, 5, 6, 7, 8, 9, 10, 11, 12, 13,
          14, 15, 16, 17, 18, 19, 20, 21, 0, 1, 2, 3, 4, 5, 6, 7, 8, 9, 10, 11, 12, 13, 14, 15, 16,
          17, 18, 19, 20, 21, 0, 1, 2, 3, 4, 5, 6, 7, 8, 9, 10, 11, 12, 13, 14, 15, 16, 17, 18, 19,
          20, 21, 0, 1, 2, 3, 4, 5, 6, 7, 8, 9, 10, 11, 12, 13, 14, 15, 16, 17, 18, 19, 20, 21, 0,
          1, 2, 3, 4, 5, 6, 7, 8, 9, 10, 11, 12, 13, 14, 15, 16, 17, 18, 19, 20, 21, 0, 1, 2, 3, 4,
          5, 6, 7, 8, 9, 10, 11, 12, 13, 14, 15, 16, 17, 18, 19, 20, 21, 0, 1, 2, 3, 4, 5, 6, 7, 8,
          9, 10, 11, 12, 13, 14, 15, 16, 17, 18, 19, 20, 21, 0, 1, 2, 3, 4, 5, 6, 7, 8, 9, 10, 11,
          12, 13, 14, 15, 16, 17, 18, 19, 20, 21, 0, 1, 2, 3, 4, 5, 6, 7, 8, 9, 10, 11, 12, 13, 14,
          15, 16, 17, 18, 19, 20, 21, 0, 1, 2, 3, 4, 5, 6, 7, 8, 9, 10, 11, 12, 13, 14, 15, 16, 17,
          18, 19, 20, 21, 0, 1, 2, 3, 4, 5, 6, 7, 8, 9, 10, 11, 12, 13, 14, 15, 16, 17, 18, 19, 20,
          21, 0, 1, 2, 3, 4, 5, 6, 7, 8, 9, 10, 11, 12, 13, 14, 15, 16, 17, 18, 19, 20, 21, 0, 1, 2,
          3, 4, 5, 6, 7, 8, 9, 10, 11, 12, 13, 14, 15, 16, 17, 18, 19, 20, 21, 0, 1, 2, 3, 4, 5, 6,
          7, 8, 9, 10, 11, 12, 13, 14, 15, 16, 17, 18, 19, 20, 21, 0, 1, 2, 3, 4, 5, 6, 7, 8, 9, 10,
          11, 12, 13, 14, 15, 16, 17, 18, 19, 20, 21, 0, 1, 2, 3, 4, 5, 6, 7, 8, 9, 10, 11, 12, 13,
          14, 15, 16, 17, 18, 19, 20, 21, 0, 1, 2, 3, 4, 5, 6, 7, 8, 9, 10, 11, 12, 13, 14, 15, 16,
          17, 18, 19, 20, 21, 0, 1, 2, 3, 4, 5, 6, 7, 8, 9, 10, 11, 12, 13, 14, 15, 16, 17, 18, 19,
          20, 21, 0, 1, 2, 3, 4, 5, 6, 7, 8, 9, 10, 11, 12, 13, 14, 15, 16, 17, 18, 19, 20, 21, 0,
          1, 2, 3, 4, 5, 6, 7, 8, 9, 10, 11, 12, 13, 14, 15, 16, 17, 18, 19, 20, 21, 0, 1, 2, 3, 4,
          5, 6, 7, 8, 9, 10, 11, 12, 13, 14, 15, 16, 17, 18, 19, 20, 21, 0, 1, 2, 3, 4, 5, 6, 7, 8,
          9, 10, 11, 12, 13, 14, 15, 16, 17, 18, 19, 20, 21, 0, 1, 2, 3, 4, 5, 6, 7, 8, 9, 10, 11,
          12, 13, 14, 15, 16, 17, 18, 19, 20, 21, 0, 1, 2, 3, 4, 5, 6, 7, 8, 9, 10, 11, 12, 13, 14,
          15, 16, 17, 18, 19, 20, 21, 0, 1, 2, 3, 4, 5, 6, 7, 8, 9, 10, 11, 12, 13, 14, 15, 16, 17,
          18, 19, 20, 21, 0, 1, 2, 3, 4, 5, 6, 7, 8, 9, 10, 11, 12, 13, 14, 15, 16, 17, 18, 19, 20,
          21, 0, 1, 2, 3, 4, 5, 6, 7, 8, 9, 10, 11, 12, 13, 14, 15, 16, 17, 18, 19, 20, 21, 0, 1, 2,
          3, 4, 5, 6, 7, 8, 9, 10, 11, 12, 13, 14, 15, 16, 17, 18, 19, 20, 21, 0, 1, 2, 3, 4, 5, 6,
          7, 8, 9, 10, 11, 12, 13, 14, 15, 16, 17, 18, 19, 20, 21, 0, 1, 2, 3, 4, 5, 6, 7, 8, 9, 10,
          11, 12, 13, 14, 15, 16, 17, 18, 19, 20, 21, 0, 1, 2, 3, 4, 5, 6, 7, 8, 9, 10, 11, 12, 13,
          14, 15, 16, 17, 18, 19, 20, 21, 0, 1, 2, 3, 4, 5, 6, 7, 8, 9, 10, 11, 12, 13, 14, 15, 16,
          17, 18, 19, 20, 21, 0, 1, 2, 3, 4, 5, 6, 7, 8, 9, 10, 11, 12, 13, 14, 15, 16, 17, 18, 19,
          20, 21, 0, 1, 2, 3, 4, 5, 6, 7, 8, 9, 10, 11, 12, 13, 14, 15, 16, 17, 18, 19, 20, 21, 0,
          1, 2, 3, 4, 5, 6, 7, 8, 9, 10, 11, 12, 13, 14, 15, 16, 17, 18, 19, 20, 21, 0, 1, 2, 3, 4,
          5, 6, 7, 8, 9, 10, 11, 12, 13, 14, 15, 16, 17, 18, 19, 20, 21
        ],
        "trees": [
          {
            "base_weights": [4.5535162e-2, -5.200428e-1, 5.063308, -4.592668e-1, 9.7133875],
            "categories": [],
            "categories_nodes": [],
            "categories_segments": [],
            "categories_sizes": [],
            "default_left": [1, 0, 1, 0, 0],
            "id": 0,
            "left_children": [1, -1, 3, -1, -1],
            "loss_changes": [4.3890216e2, 0, 4.0675214e2, 0, 0],
            "parents": [2147483647, 0, 0, 2, 2],
            "right_children": [2, -1, 4, -1, -1],
            "split_conditions": [1.075e2, -1.5601283e-1, 8.700464e1, -1.3778006e-1, 2.9140162],
            "split_indices": [1, 0, 4, 0, 0],
            "split_type": [0, 0, 0, 0, 0],
            "sum_hessian": [1.5272728e2, 1.3806198e2, 1.4665289e1, 7.1157026, 7.549587],
            "tree_param": {
              "num_deleted": "0",
              "num_feature": "7",
              "num_nodes": "5",
              "size_leaf_vector": "0"
            }
          },
          {
            "base_weights": [1.9515056e-2, -5.1929986e-1, 1.6414568, -5.0711274e-1, 9.658942],
            "categories": [],
            "categories_nodes": [],
            "categories_segments": [],
            "categories_sizes": [],
            "default_left": [1, 0, 1, 0, 0],
            "id": 1,
            "left_children": [1, -1, 3, -1, -1],
            "loss_changes": [1.3519873e2, 0, 6.693852e2, 0, 0],
            "parents": [2147483647, 0, 0, 2, 2],
            "right_children": [2, -1, 4, -1, -1],
            "split_conditions": [6.95e1, -1.5578997e-1, 7.4e1, -1.5213382e-1, 2.8976827],
            "split_indices": [1, 0, 0, 0, 0],
            "split_type": [0, 0, 0, 0, 0],
            "sum_hessian": [1.5272728e2, 1.1515289e2, 3.757438e1, 3.03719e1, 7.2024794],
            "tree_param": {
              "num_deleted": "0",
              "num_feature": "7",
              "num_nodes": "5",
              "size_leaf_vector": "0"
            }
          },
          {
            "base_weights": [
              2.6020082e-2, 9.0121216e-1, -5.183196e-1, -5.0839216e-1, 2.685284, -4.8397237e-1,
              5.432731, -4.1310045e-1, 7.5578823, 8.654822e-1, 9.293199, -2.8731343e-1, 1.6923076
            ],
            "categories": [],
            "categories_nodes": [],
            "categories_segments": [],
            "categories_sizes": [],
            "default_left": [1, 1, 0, 0, 1, 0, 1, 0, 1, 1, 0, 0, 0],
            "id": 2,
            "left_children": [1, 3, -1, -1, 5, -1, 7, -1, 9, 11, -1, -1, -1],
            "loss_changes": [
              7.3703064e1, 1.5053024e2, 0, 0, 2.319712e2, 0, 1.7940945e2, 0, 1.1341809e2, 3.5899036,
              0, 0, 0
            ],
            "parents": [2147483647, 0, 0, 1, 1, 4, 4, 6, 6, 8, 8, 9, 9],
            "right_children": [2, 4, -1, -1, 6, -1, 8, -1, 10, 12, -1, -1, -1],
            "split_conditions": [
              7.497404e1, 6.0346714e1, -1.5549588e-1, -1.5251765e-1, 6.500737, -1.4519171e-1,
              2.5053352e1, -1.2393014e-1, 5.75e1, 6.1248276e1, 2.7879596, -8.619403e-2, 5.076923e-1
            ],
            "split_indices": [6, 6, 0, 0, 5, 0, 3, 0, 1, 4, 0, 0, 0],
            "split_type": [0, 0, 0, 0, 0, 0, 0, 0, 0, 0, 0, 0, 0],
            "sum_hessian": [
              1.5272728e2, 5.831405e1, 9.441322e1, 3.297521e1, 2.5338842e1, 1.2148761e1,
              1.3190083e1, 3.731405, 9.458677, 2.2561984, 7.2024794, 1.214876, 1.0413224
            ],
            "tree_param": {
              "num_deleted": "0",
              "num_feature": "7",
              "num_nodes": "13",
              "size_leaf_vector": "0"
            }
          },
          {
            "base_weights": [
              -6.5050498e-3, 7.663507, -5.133104e-1, -3.3821377e-1, 9.584043, 2.2267205e-1,
              -5.201744e-1
            ],
            "categories": [],
            "categories_nodes": [],
            "categories_segments": [],
            "categories_sizes": [],
            "default_left": [1, 1, 1, 0, 0, 0, 0],
            "id": 3,
            "left_children": [1, 3, 5, -1, -1, -1, -1],
            "loss_changes": [6.0150287e2, 1.5063055e2, 8.490257e-1, 0, 0, 0, 0],
            "parents": [2147483647, 0, 0, 1, 1, 2, 2],
            "right_children": [2, 4, 6, -1, -1, -1, -1],
            "split_conditions": [
              1.9865417e1, 5e1, 2.0587412e1, -1.0146414e-1, 2.875213, 6.6801615e-2, -1.5605232e-1
            ],
            "split_indices": [4, 2, 4, 0, 0, 0, 0],
            "split_type": [0, 0, 0, 0, 0, 0, 0],
            "sum_hessian": [
              1.5272728e2, 8.590909, 1.4413637e2, 1.822314, 6.768595, 1.0413224, 1.4309505e2
            ],
            "tree_param": {
              "num_deleted": "0",
              "num_feature": "7",
              "num_nodes": "7",
              "size_leaf_vector": "0"
            }
          },
          {
            "base_weights": [
              -6.5050498e-3, -2.4777499e-1, 8.440385, -5.030134e-1, 7.90573e-1, 1.6417909e-1,
              -5.111264e-1, -5.0149626e-1, 4.680087, -5.1934e-1, -1.3807532e-1, 8.491046,
              -3.994112e-1, -3.4375e-1, 2.2267205e-1
            ],
            "categories": [],
            "categories_nodes": [],
            "categories_segments": [],
            "categories_sizes": [],
            "default_left": [1, 1, 0, 1, 1, 0, 1, 0, 1, 0, 1, 0, 0, 0, 0],
            "id": 4,
            "left_children": [1, 3, -1, 5, 7, -1, 9, -1, 11, -1, 13, -1, -1, -1, -1],
            "loss_changes": [
              3.1538452e2, 4.0265503e1, 0, 7.4082947e-1, 1.5346573e2, 0, 2.9642296e-1, 0,
              1.5041438e2, 0, 3.6965078e-1, 0, 0, 0, 0
            ],
            "parents": [2147483647, 0, 0, 1, 1, 3, 3, 4, 4, 6, 6, 8, 8, 10, 10],
            "right_children": [2, 4, -1, 6, 8, -1, 10, -1, 12, -1, 14, -1, -1, -1, -1],
            "split_conditions": [
              9.501027e1, 9.073247e1, 2.5321155, 6.5, 1.2924806e2, 4.925373e-2, 9.0272e1,
              -1.5044889e-1, 3.8e1, -1.55802e-1, 2.8419132e1, 2.547314, -1.1982337e-1,
              -1.03125006e-1, 6.6801615e-2
            ],
            "split_indices": [4, 4, 0, 1, 6, 0, 4, 0, 1, 0, 3, 0, 0, 0, 0],
            "split_type": [0, 0, 0, 0, 0, 0, 0, 0, 0, 0, 0, 0, 0, 0, 0],
            "sum_hessian": [
              1.5272728e2, 1.4942975e2, 3.2975206, 1.20359505e2, 2.9070248e1, 1.214876, 1.1914463e2,
              2.2475206e1, 6.5950413, 1.16194214e2, 2.9504132, 3.3842976, 3.210744, 1.9090909,
              1.0413224
            ],
            "tree_param": {
              "num_deleted": "0",
              "num_feature": "7",
              "num_nodes": "15",
              "size_leaf_vector": "0"
            }
          },
          {
            "base_weights": [
              -1.3010076e-2, -5.19051e-1, 1.2348912, 7.814392, -5.093522e-1, -3.2605305e-1, 9.584043
            ],
            "categories": [],
            "categories_nodes": [],
            "categories_segments": [],
            "categories_sizes": [],
            "default_left": [1, 0, 1, 1, 0, 0, 0],
            "id": 5,
            "left_children": [1, -1, 3, 5, -1, -1, -1],
            "loss_changes": [9.771807e1, 0, 5.163807e2, 1.3878888e2, 0, 0, 0],
            "parents": [2147483647, 0, 0, 2, 2, 3, 3],
            "right_children": [2, -1, 4, 6, -1, -1, -1],
            "split_conditions": [
              7.95e1, -1.5571532e-1, 7.0403145e1, 1.1123811e2, -1.5280567e-1, -9.781592e-2, 2.875213
            ],
            "split_indices": [0, 0, 4, 6, 0, 0, 0],
            "split_type": [0, 0, 0, 0, 0, 0, 0],
            "sum_hessian": [
              1.5272728e2, 1.09078514e2, 4.364876e1, 8.417356, 3.5231403e1, 1.6487603, 6.768595
            ],
            "tree_param": {
              "num_deleted": "0",
              "num_feature": "7",
              "num_nodes": "7",
              "size_leaf_vector": "0"
            }
          },
          {
            "base_weights": [
              -2.3263787e-8, -2.0235425e-1, 8.087527, -5.198371e-1, 1.8914026, 8.142435,
              -4.8999736e-1
            ],
            "categories": [],
            "categories_nodes": [],
            "categories_segments": [],
            "categories_sizes": [],
            "default_left": [1, 1, 0, 0, 1, 0, 0],
            "id": 6,
            "left_children": [1, 3, -1, -1, 5, -1, -1],
            "loss_changes": [2.5321819e2, 1.0132477e2, 0, 0, 3.0306723e2, 0, 0],
            "parents": [2147483647, 0, 0, 1, 1, 4, 4],
            "right_children": [2, 4, -1, -1, 6, -1, -1],
            "split_conditions": [
              1.205e2, 9.95e1, 2.4262583, -1.5595113e-1, 2.55e1, 2.4427307, -1.4699921e-1
            ],
            "split_indices": [0, 0, 0, 0, 2, 0, 0],
            "split_type": [0, 0, 0, 0, 0, 0, 0],
            "sum_hessian": [
              1.5272728e2, 1.4995041e2, 2.7768595, 1.3085951e2, 1.909091e1, 4.5991735, 1.4491735e1
            ],
            "tree_param": {
              "num_deleted": "0",
              "num_feature": "7",
              "num_nodes": "7",
              "size_leaf_vector": "0"
            }
          },
          {
            "base_weights": [1.301003e-2, -5.200428e-1, 4.7441306, 9.644603, -4.625423e-1],
            "categories": [],
            "categories_nodes": [],
            "categories_segments": [],
            "categories_sizes": [],
            "default_left": [1, 0, 1, 0, 0],
            "id": 7,
            "left_children": [1, -1, 3, -1, -1],
            "loss_changes": [3.9015768e2, 0, 4.0416336e2, 0, 0],
            "parents": [2147483647, 0, 0, 2, 2],
            "right_children": [2, -1, 4, -1, -1],
            "split_conditions": [1.075e2, -1.5601283e-1, 8.700464e1, 2.8933809, -1.387627e-1],
            "split_indices": [1, 0, 4, 0, 0],
            "split_type": [0, 0, 0, 0, 0],
            "sum_hessian": [1.5272728e2, 1.3806198e2, 1.4665289e1, 7.1157026, 7.549587],
            "tree_param": {
              "num_deleted": "0",
              "num_feature": "7",
              "num_nodes": "5",
              "size_leaf_vector": "0"
            }
          },
          {
            "base_weights": [
              -5.2040234e-2, -5.196192e-1, 1.9161685, -4.799169e-1, 3.3360457, 6.0816708,
              -4.6435273e-1, 7.4719815, -3.4375e-1, 1.6923076, 8.010808
            ],
            "categories": [],
            "categories_nodes": [],
            "categories_segments": [],
            "categories_sizes": [],
            "default_left": [1, 0, 1, 0, 1, 1, 0, 1, 0, 0, 0],
            "id": 8,
            "left_children": [1, -1, 3, -1, 5, 7, -1, 9, -1, -1, -1],
            "loss_changes": [
              1.424698e2, 0, 1.0272352e2, 0, 1.9887997e2, 1.0065057e2, 0, 1.4690155e1, 0, 0, 0
            ],
            "parents": [2147483647, 0, 0, 2, 2, 4, 4, 5, 5, 7, 7],
            "right_children": [2, -1, 4, -1, 6, 8, -1, 10, -1, -1, -1],
            "split_conditions": [
              1.5025891e2, -1.5588577e-1, 3.45e1, -1.4397508e-1, 1.9996228e2, 8.996484e1,
              -1.3930583e-1, 6.0820704, -1.03125006e-1, 5.076923e-1, 2.4032426
            ],
            "split_indices": [6, 0, 2, 0, 6, 4, 0, 5, 0, 0, 0],
            "split_type": [0, 0, 0, 0, 0, 0, 0, 0, 0, 0, 0],
            "sum_hessian": [
              1.5272728e2, 1.24004135e2, 2.872314e1, 1.0933885e1, 1.7789257e1, 9.979339, 7.8099174,
              8.070248, 1.9090909, 1.0413224, 7.028926
            ],
            "tree_param": {
              "num_deleted": "0",
              "num_feature": "7",
              "num_nodes": "11",
              "size_leaf_vector": "0"
            }
          },
          {
            "base_weights": [3.9030135e-2, 5.124629, -5.200522e-1, 9.700195, -4.5712784e-1],
            "categories": [],
            "categories_nodes": [],
            "categories_segments": [],
            "categories_sizes": [],
            "default_left": [1, 1, 0, 0, 0],
            "id": 9,
            "left_children": [1, 3, -1, -1, -1],
            "loss_changes": [4.3975296e2, 3.956559e2, 0, 0, 0],
            "parents": [2147483647, 0, 0, 1, 1],
            "right_children": [2, 4, -1, -1, -1],
            "split_conditions": [2.7685081e1, 5e1, -1.5601566e-1, 2.9100587, -1.3713835e-1],
            "split_indices": [4, 2, 0, 0, 0],
            "split_type": [0, 0, 0, 0, 0],
            "sum_hessian": [1.5272728e2, 1.4318182e1, 1.3840909e2, 7.46281, 6.855372],
            "tree_param": {
              "num_deleted": "0",
              "num_feature": "7",
              "num_nodes": "5",
              "size_leaf_vector": "0"
            }
          },
          {
            "base_weights": [
              -1.9515103e-2, 2.1915019, -5.039234e-1, -4.165091e-2, 8.853341, 4.612903e-1,
              -5.196308e-1, -4.9643707e-1, 2.3281074, 3.583871, -2.776699e-1
            ],
            "categories": [],
            "categories_nodes": [],
            "categories_segments": [],
            "categories_sizes": [],
            "default_left": [1, 1, 1, 1, 0, 0, 0, 0, 1, 0, 0],
            "id": 10,
            "left_children": [1, 3, 5, 7, -1, -1, -1, -1, 9, -1, -1],
            "loss_changes": [
              1.6575165e2, 4.1415573e2, 2.1638298, 2.4678846e1, 0, 0, 0, 0, 1.3069967e1, 0, 0
            ],
            "parents": [2147483647, 0, 0, 1, 1, 2, 2, 3, 3, 8, 8],
            "right_children": [2, 4, 6, 8, -1, -1, -1, -1, 10, -1, -1],
            "split_conditions": [
              5.351703e1, 5.95e1, 5.4950294e1, 5.55e1, 2.6560025, 1.383871e-1, -1.5588924e-1,
              -1.4893113e-1, 7.5100975e1, 1.0751613, -8.330098e-2
            ],
            "split_indices": [6, 1, 6, 1, 0, 0, 0, 0, 4, 0, 0],
            "split_type": [0, 0, 0, 0, 0, 0, 0, 0, 0, 0, 0],
            "sum_hessian": [
              1.5272728e2, 2.681405e1, 1.2591322e2, 2.0826447e1, 5.987603, 1.5619835, 1.2435124e2,
              1.8136364e1, 2.6900826, 1.5619835, 1.1280992
            ],
            "tree_param": {
              "num_deleted": "0",
              "num_feature": "7",
              "num_nodes": "11",
              "size_leaf_vector": "0"
            }
          },
          {
            "base_weights": [
              -6.5050498e-3, -5.183642e-1, 8.3480406e-1, 4.9663563, -4.2498648e-1, 9.420022,
              -4.506636e-1, 1.1840873, -5.1193935e-1
            ],
            "categories": [],
            "categories_nodes": [],
            "categories_segments": [],
            "categories_sizes": [],
            "default_left": [1, 0, 1, 1, 1, 0, 0, 0, 0],
            "id": 11,
            "left_children": [1, -1, 3, 5, 7, -1, -1, -1, -1],
            "loss_changes": [6.6632576e1, 0, 3.0676877e2, 3.361217e2, 7.0109854, 0, 0, 0, 0],
            "parents": [2147483647, 0, 0, 2, 2, 3, 3, 4, 4],
            "right_children": [2, -1, 4, 6, 8, -1, -1, -1, -1],
            "split_conditions": [
              5.95e1, -1.5550926e-1, 2.45e1, 7.491727e1, 2.55e1, 2.8260067, -1.3519908e-1,
              3.552262e-1, -1.5358181e-1
            ],
            "split_indices": [0, 0, 2, 4, 2, 0, 0, 0, 0],
            "split_type": [0, 0, 0, 0, 0, 0, 0, 0, 0],
            "sum_hessian": [
              1.5272728e2, 9.5194214e1, 5.753306e1, 1.2756199e1, 4.477686e1, 6.5950413, 6.161157,
              1.6487603, 4.31281e1
            ],
            "tree_param": {
              "num_deleted": "0",
              "num_feature": "7",
              "num_nodes": "9",
              "size_leaf_vector": "0"
            }
          },
          {
            "base_weights": [
              -3.9030183e-2, 1.7570506, -5.195179e-1, 7.0379148, -4.1901168e-1, 8.708574,
              -3.323263e-1, 7.125506e-1, -5.0107604e-1, 2.1821861, 9.385688
            ],
            "categories": [],
            "categories_nodes": [],
            "categories_segments": [],
            "categories_sizes": [],
            "default_left": [1, 1, 0, 1, 1, 1, 0, 0, 0, 0, 0],
            "id": 12,
            "left_children": [1, 3, -1, 5, 7, 9, -1, -1, -1, -1, -1],
            "loss_changes": [
              1.3357866e2, 3.7841675e2, 0, 1.20988556e2, 2.593379, 1.4232361e1, 0, 0, 0, 0, 0
            ],
            "parents": [2147483647, 0, 0, 1, 1, 3, 3, 4, 4, 5, 5],
            "right_children": [2, 4, -1, 6, 8, 10, -1, -1, -1, -1, -1],
            "split_conditions": [
              5.507599e1, 3.85e1, -1.5585537e-1, 6.05e1, 4.35e1, 2.55e1, -9.9697895e-2,
              2.1376519e-1, -1.5032282e-1, 6.546559e-1, 2.8157065
            ],
            "split_indices": [4, 1, 0, 0, 1, 2, 0, 0, 0, 0, 0],
            "split_type": [0, 0, 0, 0, 0, 0, 0, 0, 0, 0, 0],
            "sum_hessian": [
              1.5272728e2, 3.1673553e1, 1.2105372e2, 8.590909, 2.3082645e1, 6.855372, 1.7355372,
              1.0413224, 2.2041323e1, 1.0413224, 5.8140497
            ],
            "tree_param": {
              "num_deleted": "0",
              "num_feature": "7",
              "num_nodes": "11",
              "size_leaf_vector": "0"
            }
          },
          {
            "base_weights": [
              6.505003e-3, -1.7991011e-1, 5.6992416, 4.836461, -2.8336087e-1, 7.9472475,
              -2.962298e-1, 3.777086e-1, -5.0118536e-1, 5.29345, -3.2880437e-1, -1.670561e-1,
              -5.1884353e-1, 6.93505, -2.672065e-1, 1.0581162, -5.065395e-1, 7.125506e-1,
              -4.369863e-1, 2.6720648, -3.538874e-1
            ],
            "categories": [],
            "categories_nodes": [],
            "categories_segments": [],
            "categories_sizes": [],
            "default_left": [1, 1, 1, 0, 1, 0, 0, 1, 1, 1, 1, 1, 0, 0, 0, 1, 0, 0, 0, 0, 0],
            "id": 13,
            "left_children": [
              1, 3, 5, -1, 7, -1, -1, 9, 11, 13, 15, 17, -1, -1, -1, 19, -1, -1, -1, -1, -1
            ],
            "loss_changes": [
              1.641626e2, 7.912036e1, 6.846254e1, 0, 2.1463392e1, 0, 0, 1.3088861e2, 5.715046e-1,
              4.504315e1, 8.782675, 1.9910622, 0, 0, 0, 1.0343722e1, 0, 0, 0, 0, 0
            ],
            "parents": [
              2147483647, 0, 0, 1, 1, 2, 2, 4, 4, 7, 7, 8, 8, 9, 9, 10, 10, 11, 11, 15, 15
            ],
            "right_children": [
              2, 4, 6, -1, 8, -1, -1, 10, 12, 14, 16, 18, -1, -1, -1, 20, -1, -1, -1, -1, -1
            ],
            "split_conditions": [
              8.00603, 4.6383743, 5e1, 1.4509383, 6.1483288e1, 2.3841743, -8.8868946e-2, 6.158406e1,
              6.357564e1, 5.95e1, 7.083543e1, 5.943456, -1.5565306e-1, 2.0805151, -8.016195e-2,
              5.75e1, -1.5196186e-1, 2.1376519e-1, -1.310959e-1, 8.0161947e-1, -1.0616623e-1
            ],
            "split_indices": [5, 5, 2, 0, 4, 0, 0, 6, 4, 1, 6, 5, 0, 0, 0, 1, 0, 0, 0, 0, 0],
            "split_type": [0, 0, 0, 0, 0, 0, 0, 0, 0, 0, 0, 0, 0, 0, 0, 0, 0, 0, 0, 0, 0],
            "sum_hessian": [
              1.5272728e2, 1.4882231e2, 3.9049587, 2.0826447, 1.4673967e2, 2.6033058, 1.3016529,
              3.618595e1, 1.1055372e2, 3.731405, 3.2454544e1, 6.0743804, 1.0447934e2, 2.6900826,
              1.0413224, 3.123967, 2.9330578e1, 1.0413224, 5.0330577, 1.0413224, 2.0826447
            ],
            "tree_param": {
              "num_deleted": "0",
              "num_feature": "7",
              "num_nodes": "21",
              "size_leaf_vector": "0"
            }
          },
          {
            "base_weights": [
              -2.6020128e-2, 1.7343006, -5.1947474e-1, 3.5713644, -4.311558e-1, -4.7926915e-1,
              9.307693, 2.2267205e-1, -4.898069e-1
            ],
            "categories": [],
            "categories_nodes": [],
            "categories_segments": [],
            "categories_sizes": [],
            "default_left": [1, 1, 0, 1, 1, 0, 0, 0, 0],
            "id": 14,
            "left_children": [1, 3, -1, 5, 7, -1, -1, -1, -1],
            "loss_changes": [1.3443434e2, 1.3635074e2, 0, 4.3297833e2, 7.397435e-1, 0, 0, 0, 0],
            "parents": [2147483647, 0, 0, 1, 1, 3, 3, 4, 4],
            "right_children": [2, 4, -1, 6, 8, -1, -1, -1, -1],
            "split_conditions": [
              6.007392e1, 3.85e1, -1.5584242e-1, 7.497938e1, 5.45e1, -1.4378075e-1, 2.7923079,
              6.6801615e-2, -1.4694208e-1
            ],
            "split_indices": [6, 0, 0, 4, 0, 0, 0, 0, 0],
            "split_type": [0, 0, 0, 0, 0, 0, 0, 0, 0],
            "sum_hessian": [
              1.5272728e2, 3.288843e1, 1.19838844e2, 1.7442148e1, 1.5446281e1, 1.076033e1, 6.681818,
              1.0413224, 1.4404959e1
            ],
            "tree_param": {
              "num_deleted": "0",
              "num_feature": "7",
              "num_nodes": "9",
              "size_leaf_vector": "0"
            }
          },
          {
            "base_weights": [-1.9515103e-2, 9.568048, -5.202473e-1],
            "categories": [],
            "categories_nodes": [],
            "categories_segments": [],
            "categories_sizes": [],
            "default_left": [1, 0, 0],
            "id": 15,
            "left_children": [1, -1, -1],
            "loss_changes": [7.429919e2, 0, 0],
            "parents": [2147483647, 0, 0],
            "right_children": [2, -1, -1],
            "split_conditions": [3.0393478e1, 2.8704143, -1.560742e-1],
            "split_indices": [6, 0, 0],
            "split_type": [0, 0, 0],
            "sum_hessian": [1.5272728e2, 6.681818, 1.4604546e2],
            "tree_param": {
              "num_deleted": "0",
              "num_feature": "7",
              "num_nodes": "3",
              "size_leaf_vector": "0"
            }
          },
          {
            "base_weights": [
              -5.854526e-2, 9.343497, -4.7975558e-1, 4.2155686e-1, -5.2012557e-1, 2.6720648,
              -4.3441468e-1
            ],
            "categories": [],
            "categories_nodes": [],
            "categories_segments": [],
            "categories_sizes": [],
            "default_left": [1, 0, 1, 1, 0, 0, 0],
            "id": 16,
            "left_children": [1, -1, 3, 5, -1, -1, -1],
            "loss_changes": [6.1327905e2, 0, 5.6075478, 1.4454333e1, 0, 0, 0],
            "parents": [2147483647, 0, 0, 2, 2, 3, 3],
            "right_children": [2, -1, 4, 6, -1, -1, -1],
            "split_conditions": [
              1.45e1, 2.8030493, 1.55e1, 4.25e1, -1.5603767e-1, 8.0161947e-1, -1.3032441e-1
            ],
            "split_indices": [2, 0, 2, 1, 0, 0, 0],
            "split_type": [0, 0, 0, 0, 0, 0, 0],
            "sum_hessian": [
              1.5272728e2, 5.640496, 1.4708678e2, 5.9008265, 1.4118596e2, 1.0413224, 4.859504
            ],
            "tree_param": {
              "num_deleted": "0",
              "num_feature": "7",
              "num_nodes": "7",
              "size_leaf_vector": "0"
            }
          },
          {
            "base_weights": [
              6.505003e-3, -2.1310301e-1, 6.5927153, -5.1930326e-1, 8.248682e-1, 2.2267205e-1,
              8.215481, -5.0141346e-1, 3.3187711, -4.592668e-1, 8.796357
            ],
            "categories": [],
            "categories_nodes": [],
            "categories_segments": [],
            "categories_sizes": [],
            "default_left": [1, 1, 1, 0, 1, 0, 0, 0, 1, 0, 0],
            "id": 17,
            "left_children": [1, 3, 5, -1, 7, -1, -1, -1, 9, -1, -1],
            "loss_changes": [
              2.2375368e2, 4.801836e1, 4.9770676e1, 0, 1.1576323e2, 0, 0, 0, 2.5459761e2, 0, 0
            ],
            "parents": [2147483647, 0, 0, 1, 1, 2, 2, 4, 4, 8, 8],
            "right_children": [2, 4, 6, -1, 8, -1, -1, -1, 10, -1, -1],
            "split_conditions": [
              3.631159e1, 9.014548e1, 9.005731e1, -1.5579098e-1, 6.500951, 6.6801615e-2, 2.4646444,
              -1.5042405e-1, 3.8e1, -1.3778006e-1, 2.6389072
            ],
            "split_indices": [3, 4, 4, 0, 5, 0, 0, 0, 1, 0, 0],
            "split_type": [0, 0, 0, 0, 0, 0, 0, 0, 0, 0, 0],
            "sum_hessian": [
              1.5272728e2, 1.4873553e2, 3.9917355, 1.1523967e2, 3.349587e1, 1.0413224, 2.9504132,
              2.238843e1, 1.1107438e1, 7.1157026, 3.9917355
            ],
            "tree_param": {
              "num_deleted": "0",
              "num_feature": "7",
              "num_nodes": "11",
              "size_leaf_vector": "0"
            }
          },
          {
            "base_weights": [
              1.301003e-2, 1.254366, -4.2316854e-1, -7.909026e-2, 4.0332174, 1.1299093,
              -4.5709053e-1, -4.9580204e-1, 6.7364675e-1, 6.1021156, -4.2066723e-1, -8.037021e-2,
              -5.1839834e-1, -2.2558595e-1, 2.9889655, -3.882353e-1, 9.202565, -4.8548973e-1,
              1.226923, 7.125506e-1, -4.532294e-1, 3.1619432, -3.629442e-1
            ],
            "categories": [],
            "categories_nodes": [],
            "categories_segments": [],
            "categories_sizes": [],
            "default_left": [1, 1, 1, 1, 1, 0, 1, 0, 1, 1, 0, 1, 0, 1, 0, 0, 0, 0, 1, 0, 0, 0, 0],
            "id": 18,
            "left_children": [
              1, 3, 5, 7, 9, -1, 11, -1, 13, 15, -1, 17, -1, 19, -1, -1, -1, -1, 21, -1, -1, -1, -1
            ],
            "loss_changes": [
              8.376689e1, 1.4936491e2, 6.5489464, 9.167428, 1.2292839e2, 0, 2.56283, 0, 2.2449343e1,
              1.8434717e2, 0, 9.581521, 0, 2.130272, 0, 0, 0, 0, 1.436861e1, 0, 0, 0, 0
            ],
            "parents": [
              2147483647, 0, 0, 1, 1, 2, 2, 3, 3, 4, 4, 6, 6, 8, 8, 9, 9, 11, 11, 13, 13, 18, 18
            ],
            "right_children": [
              2, 4, 6, 8, 10, -1, 12, -1, 14, 16, -1, 18, -1, 20, -1, -1, -1, -1, 22, -1, -1, -1, -1
            ],
            "split_conditions": [
              6.0581875e1, 1.0914172e2, 5.479726, 9.127069e1, 6e1, 3.389728e-1, 6.7158585e1,
              -1.4874062e-1, 6.75e1, 2.7669716e1, -1.2620017e-1, 8.911337e1, -1.5551952e-1,
              4.968278, 8.966897e-1, -1.164706e-1, 2.7607696, -1.4564693e-1, 8.05e1, 2.1376519e-1,
              -1.3596882e-1, 9.48583e-1, -1.0888326e-1
            ],
            "split_indices": [4, 6, 5, 6, 0, 0, 4, 0, 1, 4, 0, 6, 0, 5, 0, 0, 0, 0, 0, 0, 0, 0, 0],
            "split_type": [0, 0, 0, 0, 0, 0, 0, 0, 0, 0, 0, 0, 0, 0, 0, 0, 0, 0, 0, 0, 0, 0, 0],
            "sum_hessian": [
              1.5272728e2, 3.922314e1, 1.13504135e2, 2.7161158e1, 1.2061983e1, 1.7355372,
              1.1176859e2, 1.770248e1, 9.458677, 7.983471, 4.078512, 1.5966942e1, 9.580165e1,
              7.46281, 1.9958677, 2.8636365, 5.119835, 1.2669421e1, 3.2975206, 1.0413224, 6.421488,
              1.0413224, 2.2561984
            ],
            "tree_param": {
              "num_deleted": "0",
              "num_feature": "7",
              "num_nodes": "23",
              "size_leaf_vector": "0"
            }
          },
          {
            "base_weights": [
              1.9515056e-2, 1.4146925, -5.191176e-1, 4.9912686, -5.05711e-1, -4.3821743e-1,
              7.8079143, 9.658942, -3.3821377e-1
            ],
            "categories": [],
            "categories_nodes": [],
            "categories_segments": [],
            "categories_sizes": [],
            "default_left": [1, 1, 0, 1, 0, 0, 1, 0, 0],
            "id": 19,
            "left_children": [1, 3, -1, 5, -1, -1, 7, -1, -1],
            "loss_changes": [1.1625862e2, 2.9846436e2, 0, 2.3502744e2, 0, 0, 1.5442767e2, 0, 0],
            "parents": [2147483647, 0, 0, 1, 1, 3, 3, 6, 6],
            "right_children": [2, 4, -1, 6, -1, -1, 8, -1, -1],
            "split_conditions": [
              3.05e1, 2.4978626e1, -1.5573528e-1, 3.45e1, -1.5171331e-1, -1.3146524e-1, 6e1,
              2.8976827, -1.0146414e-1
            ],
            "split_indices": [1, 3, 0, 2, 0, 0, 0, 0, 0],
            "split_type": [0, 0, 0, 0, 0, 0, 0, 0, 0],
            "sum_hessian": [
              1.5272728e2, 4.2086777e1, 1.10640495e2, 1.4144629e1, 2.7942148e1, 5.119835, 9.024794,
              7.2024794, 1.822314
            ],
            "tree_param": {
              "num_deleted": "0",
              "num_feature": "7",
              "num_nodes": "9",
              "size_leaf_vector": "0"
            }
          },
          {
            "base_weights": [
              2.6020082e-2, -4.16206e-1, 6.1236663, -5.199636e-1, 1.1876993, 9.425783,
              -4.0665436e-1, -4.302583e-1, 2.9482439, 5.1510572, -3.323263e-1
            ],
            "categories": [],
            "categories_nodes": [],
            "categories_segments": [],
            "categories_sizes": [],
            "default_left": [1, 1, 1, 0, 1, 0, 0, 0, 1, 0, 0],
            "id": 20,
            "left_children": [1, 3, 5, -1, 7, -1, -1, -1, 9, -1, -1],
            "loss_changes": [
              4.1708017e2, 2.4626358e1, 2.2936273e2, 0, 2.7104982e1, 0, 0, 0, 3.402198e1, 0, 0
            ],
            "parents": [2147483647, 0, 0, 1, 1, 2, 2, 4, 4, 8, 8],
            "right_children": [2, 4, 6, -1, 8, -1, -1, -1, 10, -1, -1],
            "split_conditions": [
              1.9998306e2, 1.8246188e2, 8.751912e1, -1.559891e-1, 8.006557e1, 2.827735,
              -1.2199631e-1, -1.290775e-1, 8.72823e1, 1.5453173, -9.9697895e-2
            ],
            "split_indices": [6, 6, 4, 0, 4, 0, 0, 0, 4, 0, 0],
            "split_type": [0, 0, 0, 0, 0, 0, 0, 0, 0, 0, 0],
            "sum_hessian": [
              1.5272728e2, 1.432686e2, 9.458677, 1.3519835e2, 8.070248, 5.987603, 3.4710743,
              4.5991735, 3.4710743, 1.7355372, 1.7355372
            ],
            "tree_param": {
              "num_deleted": "0",
              "num_feature": "7",
              "num_nodes": "11",
              "size_leaf_vector": "0"
            }
          },
          {
            "base_weights": [
              3.2525107e-2, 2.0128691, -5.19481e-1, 5.2898874, -4.9762446e-1, -4.5239437e-1,
              9.6867285
            ],
            "categories": [],
            "categories_nodes": [],
            "categories_segments": [],
            "categories_sizes": [],
            "default_left": [1, 1, 0, 1, 0, 0, 0],
            "id": 21,
            "left_children": [1, 3, -1, 5, -1, -1, -1],
            "loss_changes": [1.6909445e2, 2.800024e2, 0, 3.757976e2, 0, 0, 0],
            "parents": [2147483647, 0, 0, 1, 1, 3, 3],
            "right_children": [2, 4, -1, 6, -1, -1, -1],
            "split_conditions": [
              5.9815228e1, 2.700037e1, -1.558443e-1, 7.4e1, -1.4928734e-1, -1.3571832e-1, 2.9060187
            ],
            "split_indices": [6, 3, 0, 0, 0, 0, 0],
            "split_type": [0, 0, 0, 0, 0, 0, 0],
            "sum_hessian": [
              1.5272728e2, 3.2714878e1, 1.200124e2, 1.3710744e1, 1.9004133e1, 6.3347106, 7.3760333
            ],
            "tree_param": {
              "num_deleted": "0",
              "num_feature": "7",
              "num_nodes": "7",
              "size_leaf_vector": "0"
            }
          },
          {
            "base_weights": [
              -6.0027386e-3, -5.0763875e-1, 8.4794605e-1, -4.0705606e-1, 9.6611184e-1
            ],
            "categories": [],
            "categories_nodes": [],
            "categories_segments": [],
            "categories_sizes": [],
            "default_left": [1, 0, 1, 0, 0],
            "id": 22,
            "left_children": [1, -1, 3, -1, -1],
            "loss_changes": [5.597726e1, 0, 7.5648117, 0, 0],
            "parents": [2147483647, 0, 0, 2, 2],
            "right_children": [2, -1, 4, -1, -1],
            "split_conditions": [1.075e2, -1.5229163e-1, 8.700464e1, -1.2211683e-1, 2.8983358e-1],
            "split_indices": [1, 0, 4, 0, 0],
            "split_type": [0, 0, 0, 0, 0],
            "sum_hessian": [1.2866972e2, 8.131078e1, 4.735894e1, 3.8650177, 4.3493923e1],
            "tree_param": {
              "num_deleted": "0",
              "num_feature": "7",
              "num_nodes": "5",
              "size_leaf_vector": "0"
            }
          },
          {
            "base_weights": [
              -1.9744666e-2, -5.0654495e-1, 5.4610664e-1, -4.8482168e-1, 9.7232354e-1
            ],
            "categories": [],
            "categories_nodes": [],
            "categories_segments": [],
            "categories_sizes": [],
            "default_left": [1, 0, 1, 0, 0],
            "id": 23,
            "left_children": [1, -1, 3, -1, -1],
            "loss_changes": [3.5490063e1, 0, 2.6659344e1, 0, 0],
            "parents": [2147483647, 0, 0, 2, 2],
            "right_children": [2, -1, 4, -1, -1],
            "split_conditions": [6.95e1, -1.5196349e-1, 7.4e1, -1.4544651e-1, 2.9169708e-1],
            "split_indices": [1, 0, 0, 0, 0],
            "split_type": [0, 0, 0, 0, 0],
            "sum_hessian": [1.2683662e2, 6.8237175e1, 5.859944e1, 1.7100197e1, 4.1499245e1],
            "tree_param": {
              "num_deleted": "0",
              "num_feature": "7",
              "num_nodes": "5",
              "size_leaf_vector": "0"
            }
          },
          {
            "base_weights": [
              6.7686546e-3, 3.9340043e-1, -5.104874e-1, -4.9187452e-1, 7.814862e-1, -4.2795634e-1,
              9.1818005e-1, -3.825742e-1, 1.0115023, -3.370599e-1, 1.0790907, 1.1065859, 7.4118e-2
            ],
            "categories": [],
            "categories_nodes": [],
            "categories_segments": [],
            "categories_sizes": [],
            "default_left": [1, 1, 0, 0, 1, 0, 1, 0, 1, 0, 1, 0, 0],
            "id": 24,
            "left_children": [1, 3, -1, -1, 5, -1, 7, -1, 9, -1, 11, -1, -1],
            "loss_changes": [
              2.5858227e1, 2.5801998e1, 0, 0, 8.96014, 0, 6.077297, 0, 4.3753853, 0, 1.0826759, 0, 0
            ],
            "parents": [2147483647, 0, 0, 1, 1, 4, 4, 6, 6, 8, 8, 10, 10],
            "right_children": [2, 4, -1, -1, 6, -1, 8, -1, 10, -1, 12, -1, -1],
            "split_conditions": [
              7.000328e1, 6.001602e1, -1.5314622e-1, -1.4756235e-1, 2.5089886e1, -1.2838691e-1,
              5.7678642e1, -1.1477227e-1, 5.35e1, -1.0111797e-1, 7.48926e1, 3.3197576e-1,
              2.2235401e-2
            ],
            "split_indices": [4, 4, 0, 0, 3, 0, 6, 0, 1, 0, 6, 0, 0],
            "split_type": [0, 0, 0, 0, 0, 0, 0, 0, 0, 0, 0, 0, 0],
            "sum_hessian": [
              1.2729496e2, 7.2982445e1, 5.4312515e1, 2.216156e1, 5.082088e1, 4.9442515, 4.587663e1,
              2.8635862, 4.3013042e1, 1.8625944, 4.115045e1, 3.9956177e1, 1.1942747
            ],
            "tree_param": {
              "num_deleted": "0",
              "num_feature": "7",
              "num_nodes": "13",
              "size_leaf_vector": "0"
            }
          },
          {
            "base_weights": [-2.8547376e-2, 9.654562e-1, -5.0780237e-1, -2.7094778e-1, 1.0067517],
            "categories": [],
            "categories_nodes": [],
            "categories_segments": [],
            "categories_sizes": [],
            "default_left": [1, 1, 0, 0, 0],
            "id": 25,
            "left_children": [1, 3, -1, -1, -1],
            "loss_changes": [6.034475e1, 2.3772316, 0, 0, 0],
            "parents": [2147483647, 0, 0, 1, 1],
            "right_children": [2, 4, -1, -1, -1],
            "split_conditions": [1.999355e1, 5e1, -1.5234071e-1, -8.128434e-2, 3.020255e-1],
            "split_indices": [4, 2, 0, 0, 0],
            "split_type": [0, 0, 0, 0, 0],
            "sum_hessian": [1.2464412e2, 4.021705e1, 8.442707e1, 1.1200821, 3.909697e1],
            "tree_param": {
              "num_deleted": "0",
              "num_feature": "7",
              "num_nodes": "5",
              "size_leaf_vector": "0"
            }
          },
          {
            "base_weights": [
              2.6558382e-2, -5.0621635e-1, 6.849682e-1, 1.151325, -4.834101e-1, 1.221037,
              -3.1617492e-1
            ],
            "categories": [],
            "categories_nodes": [],
            "categories_segments": [],
            "categories_sizes": [],
            "default_left": [1, 0, 1, 1, 0, 0, 0],
            "id": 26,
            "left_children": [1, -1, 3, 5, -1, -1, -1],
            "loss_changes": [4.3764004e1, 0, 3.0952118e1, 4.4950943, 0, 0, 0],
            "parents": [2147483647, 0, 0, 2, 2, 3, 3],
            "right_children": [2, -1, 4, 6, -1, -1, -1],
            "split_conditions": [
              1.3086386e2, -1.5186492e-1, 3.05e1, 6e1, -1.4502303e-1, 3.6631113e-1, -9.4852485e-2
            ],
            "split_indices": [6, 0, 1, 0, 0, 0, 0],
            "split_type": [0, 0, 0, 0, 0, 0, 0],
            "sum_hessian": [
              1.22772026e2, 6.7988205e1, 5.478382e1, 3.916554e1, 1.5618283e1, 3.7549725e1, 1.6158134
            ],
            "tree_param": {
              "num_deleted": "0",
              "num_feature": "7",
              "num_nodes": "7",
              "size_leaf_vector": "0"
            }
          },
          {
            "base_weights": [
              -2.8016742e-2, -5.0611913e-1, 4.858892e-1, 9.8038614e-1, -4.8901272e-1, -2.6546657e-1,
              1.020316
            ],
            "categories": [],
            "categories_nodes": [],
            "categories_segments": [],
            "categories_sizes": [],
            "default_left": [1, 0, 1, 1, 0, 0, 0],
            "id": 27,
            "left_children": [1, -1, 3, 5, -1, -1, -1],
            "loss_changes": [3.1061937e1, 0, 2.986622e1, 2.2993507, 0, 0, 0],
            "parents": [2147483647, 0, 0, 2, 2, 3, 3],
            "right_children": [2, -1, 4, 6, -1, -1, -1],
            "split_conditions": [
              7.95e1, -1.5183574e-1, 7.0403145e1, 1.1123811e2, -1.4670382e-1, -7.963997e-2,
              3.0609483e-1
            ],
            "split_indices": [0, 0, 4, 6, 0, 0, 0],
            "split_type": [0, 0, 0, 0, 0, 0, 0],
            "sum_hessian": [
              1.2442149e2, 6.4463905e1, 5.9957592e1, 3.9776325e1, 2.0181265e1, 1.0598439, 3.871648e1
            ],
            "tree_param": {
              "num_deleted": "0",
              "num_feature": "7",
              "num_nodes": "7",
              "size_leaf_vector": "0"
            }
          },
          {
            "base_weights": [
              3.5117485e-2, -5.072067e-1, 9.007388e-1, 1.1711556, -4.5415145e-1, -4.312945e-1,
              1.2586089
            ],
            "categories": [],
            "categories_nodes": [],
            "categories_segments": [],
            "categories_sizes": [],
            "default_left": [1, 0, 1, 1, 0, 0, 0],
            "id": 28,
            "left_children": [1, -1, 3, 5, -1, -1, -1],
            "loss_changes": [5.9280533e1, 0, 1.8347694e1, 6.2626343, 0, 0, 0],
            "parents": [2147483647, 0, 0, 2, 2, 3, 3],
            "right_children": [2, -1, 4, 6, -1, -1, -1],
            "split_conditions": [
              9.95e1, -1.5216202e-1, 2.55e1, 7.174284e1, -1.3624544e-1, -1.2938836e-1, 3.775827e-1
            ],
            "split_indices": [0, 0, 2, 4, 0, 0, 0],
            "split_type": [0, 0, 0, 0, 0, 0, 0],
            "sum_hessian": [
              1.24304085e2, 7.667817e1, 4.762592e1, 3.9815018e1, 7.810903, 1.85698, 3.795804e1
            ],
            "tree_param": {
              "num_deleted": "0",
              "num_feature": "7",
              "num_nodes": "7",
              "size_leaf_vector": "0"
            }
          },
          {
            "base_weights": [-2.2751853e-2, -5.0763875e-1, 8.442926e-1, 9.7536e-1, -4.1096583e-1],
            "categories": [],
            "categories_nodes": [],
            "categories_segments": [],
            "categories_sizes": [],
            "default_left": [1, 0, 1, 0, 0],
            "id": 29,
            "left_children": [1, -1, 3, -1, -1],
            "loss_changes": [5.3976715e1, 0, 7.978428, 0, 0],
            "parents": [2147483647, 0, 0, 2, 2],
            "right_children": [2, -1, 4, -1, -1],
            "split_conditions": [1.075e2, -1.5229163e-1, 8.700464e1, 2.92608e-1, -1.2328976e-1],
            "split_indices": [1, 0, 4, 0, 0],
            "split_type": [0, 0, 0, 0, 0],
            "sum_hessian": [1.2636861e2, 8.131078e1, 4.505782e1, 4.0999817e1, 4.058002],
            "tree_param": {
              "num_deleted": "0",
              "num_feature": "7",
              "num_nodes": "5",
              "size_leaf_vector": "0"
            }
          },
          {
            "base_weights": [
              -1.2248667e-2, -5.0648075e-1, 6.723511e-1, -4.5039737e-1, 8.538546e-1, -4.730912e-1,
              9.9037904e-1, -4.9554193e-1, 1.1363469, 1.2347444, -3.4982386e-1, 1.2701862,
              2.9885337e-1
            ],
            "categories": [],
            "categories_nodes": [],
            "categories_segments": [],
            "categories_sizes": [],
            "default_left": [1, 0, 1, 0, 1, 0, 1, 0, 1, 1, 0, 0, 0],
            "id": 30,
            "left_children": [1, -1, 3, -1, 5, -1, 7, -1, 9, 11, -1, -1, -1],
            "loss_changes": [
              4.2270206e1, 0, 1.1059797e1, 0, 8.700569, 0, 9.569691, 0, 6.005581, 8.1344986e-1, 0,
              0, 0
            ],
            "parents": [2147483647, 0, 0, 2, 2, 4, 4, 6, 6, 8, 8, 9, 9],
            "right_children": [2, -1, 4, -1, 6, -1, 8, -1, 10, 12, -1, -1, -1],
            "split_conditions": [
              1.5025891e2, -1.5194423e-1, 5.9e1, -1.3511921e-1, 7.029722e1, -1.4192738e-1,
              2.3076193e1, -1.4866258e-1, 2.003356e2, 2.6854671e1, -1.04947165e-1, 3.8105586e-1,
              8.965601e-2
            ],
            "split_indices": [6, 0, 0, 0, 4, 0, 3, 0, 6, 3, 0, 0, 0],
            "split_type": [0, 0, 0, 0, 0, 0, 0, 0, 0, 0, 0, 0, 0],
            "sum_hessian": [
              1.2292354e2, 7.153823e1, 5.1385303e1, 6.9447603, 4.4440544e1, 3.9157968, 4.0524746e1,
              3.4106112, 3.7114136e1, 3.496812e1, 2.1460176, 3.334805e1, 1.6200693
            ],
            "tree_param": {
              "num_deleted": "0",
              "num_feature": "7",
              "num_nodes": "13",
              "size_leaf_vector": "0"
            }
          },
          {
            "base_weights": [-6.93567e-3, 8.574903e-1, -5.076342e-1, 9.7553164e-1, -4.0565717e-1],
            "categories": [],
            "categories_nodes": [],
            "categories_segments": [],
            "categories_sizes": [],
            "default_left": [1, 1, 0, 0, 0],
            "id": 31,
            "left_children": [1, 3, -1, -1, -1],
            "loss_changes": [5.6365223e1, 7.518135, 0, 0, 0],
            "parents": [2147483647, 0, 0, 1, 1],
            "right_children": [2, 4, -1, -1, -1],
            "split_conditions": [2.7685081e1, 5e1, -1.5229027e-1, 2.926595e-1, -1.2169716e-1],
            "split_indices": [4, 2, 0, 0, 0],
            "split_type": [0, 0, 0, 0, 0],
            "sum_hessian": [1.282231e2, 4.6768135e1, 8.145496e1, 4.29794e1, 3.7887342],
            "tree_param": {
              "num_deleted": "0",
              "num_feature": "7",
              "num_nodes": "5",
              "size_leaf_vector": "0"
            }
          },
          {
            "base_weights": [
              1.200319e-2, 7.5757366e-1, -5.0665665e-1, 1.127204, -4.9387172e-1, -4.1665417e-1,
              1.2876941, 2.1510105, 1.1480814
            ],
            "categories": [],
            "categories_nodes": [],
            "categories_segments": [],
            "categories_sizes": [],
            "default_left": [1, 1, 0, 1, 0, 0, 1, 0, 0],
            "id": 32,
            "left_children": [1, 3, -1, 5, -1, -1, 7, -1, -1],
            "loss_changes": [4.8049667e1, 2.4134306e1, 0, 1.0361572e1, 0, 0, 1.8892784, 0, 0],
            "parents": [2147483647, 0, 0, 1, 1, 3, 3, 6, 6],
            "right_children": [2, 4, -1, 6, -1, -1, 8, -1, -1],
            "split_conditions": [
              5.4950294e1, 7.497499e1, -1.51997e-1, 6.0178802e1, -1.4816152e-1, -1.2499625e-1,
              5.95e1, 6.453032e-1, 3.4442443e-1
            ],
            "split_indices": [6, 4, 0, 4, 0, 0, 1, 0, 0],
            "split_type": [0, 0, 0, 0, 0, 0, 0, 0, 0],
            "sum_hessian": [
              1.2226389e2, 4.9970688e1, 7.2293205e1, 3.8653244e1, 1.1317445e1, 3.489489,
              3.5163754e1, 2.889445, 3.2274307e1
            ],
            "tree_param": {
              "num_deleted": "0",
              "num_feature": "7",
              "num_nodes": "9",
              "size_leaf_vector": "0"
            }
          },
          {
            "base_weights": [
              -1.2950574e-2, -5.0497955e-1, 3.948346e-1, 8.9914674e-1, -4.938066e-1, 1.0752759,
              -4.266916e-1, 1.0978541, 2.8447458e-1
            ],
            "categories": [],
            "categories_nodes": [],
            "categories_segments": [],
            "categories_sizes": [],
            "default_left": [1, 0, 1, 1, 0, 1, 0, 0, 0],
            "id": 33,
            "left_children": [1, -1, 3, 5, -1, 7, -1, -1, -1],
            "loss_changes": [2.531686e1, 0, 3.1372845e1, 1.0822926e1, 0, 3.9227676e-1, 0, 0, 0],
            "parents": [2147483647, 0, 0, 2, 2, 3, 3, 5, 5],
            "right_children": [2, -1, 4, 6, -1, 8, -1, -1, -1],
            "split_conditions": [
              5.95e1, -1.5149388e-1, 7.486189e1, 1.1218631e2, -1.4814198e-1, 2.612228e1,
              -1.2800749e-1, 3.2935625e-1, 8.534238e-2
            ],
            "split_indices": [0, 0, 4, 6, 0, 3, 0, 0, 0],
            "split_type": [0, 0, 0, 0, 0, 0, 0, 0, 0],
            "sum_hessian": [
              1.2418546e2, 5.617137e1, 6.801409e1, 4.338237e1, 2.463172e1, 3.846193e1, 4.9204383,
              3.7016785e1, 1.4451482
            ],
            "tree_param": {
              "num_deleted": "0",
              "num_feature": "7",
              "num_nodes": "9",
              "size_leaf_vector": "0"
            }
          },
          {
            "base_weights": [
              -2.4247916e-2, 6.5184665e-1, -5.0650424e-1, 1.0608275, -4.782124e-1, 1.1227705,
              -3.1021014e-1, 4.9448352e-2, 1.1605513, 1.4415892, 9.9857837e-1, 9.0083295e-1,
              1.9478232
            ],
            "categories": [],
            "categories_nodes": [],
            "categories_segments": [],
            "categories_sizes": [],
            "default_left": [1, 1, 0, 1, 0, 1, 0, 0, 1, 1, 0, 0, 0],
            "id": 34,
            "left_children": [1, 3, -1, 5, -1, 7, -1, -1, 9, 11, -1, -1, -1],
            "loss_changes": [
              4.0015015e1, 2.4129093e1, 0, 3.5618248, 0, 1.4194756, 0, 0, 1.5991974e-1, 1.1450729,
              0, 0, 0
            ],
            "parents": [2147483647, 0, 0, 1, 1, 3, 3, 5, 5, 8, 8, 9, 9],
            "right_children": [2, 4, -1, 6, -1, 8, -1, -1, 10, 12, -1, -1, -1],
            "split_conditions": [
              5.507599e1, 4.05e1, -1.5195128e-1, 6.9706287, -1.4346372e-1, 2.720686e1, -9.306304e-2,
              1.4834506e-2, 2.75e1, 5.4668937, 2.995735e-1, 2.702499e-1, 5.8434695e-1
            ],
            "split_indices": [4, 1, 0, 5, 0, 3, 0, 0, 2, 5, 0, 0, 0],
            "split_type": [0, 0, 0, 0, 0, 0, 0, 0, 0, 0, 0, 0, 0],
            "sum_hessian": [
              1.20713684e2, 5.0110332e1, 7.0603355e1, 3.683911e1, 1.3271219e1, 3.5419933e1,
              1.4191793, 1.2828894, 3.4137043e1, 9.592677, 2.4544367e1, 5.9821053, 3.6105719
            ],
            "tree_param": {
              "num_deleted": "0",
              "num_feature": "7",
              "num_nodes": "13",
              "size_leaf_vector": "0"
            }
          },
          {
            "base_weights": [
              1.0610462e-1, 7.0074236e-1, -5.0488454e-1, 1.2704124, -4.9272165e-1, 1.5530063,
              -4.374522e-1, -4.086816e-1, 1.7083871, 2.1755211, 1.4125429
            ],
            "categories": [],
            "categories_nodes": [],
            "categories_segments": [],
            "categories_sizes": [],
            "default_left": [1, 1, 0, 1, 0, 1, 0, 0, 1, 0, 0],
            "id": 35,
            "left_children": [1, 3, -1, 5, -1, 7, -1, -1, 9, -1, -1],
            "loss_changes": [
              4.3964138e1, 4.2268417e1, 0, 2.082409e1, 0, 1.1681412e1, 0, 0, 1.5679169, 0, 0
            ],
            "parents": [2147483647, 0, 0, 1, 1, 3, 3, 5, 5, 8, 8],
            "right_children": [2, 4, -1, 6, -1, 8, -1, -1, 10, -1, -1],
            "split_conditions": [
              6.497164e1, 7.448206e1, -1.5146537e-1, 5.95e1, -1.478165e-1, 2.3760616e1,
              -1.3123566e-1, -1.2260448e-1, 6.0119805, 6.526564e-1, 4.237629e-1
            ],
            "split_indices": [4, 6, 0, 1, 0, 3, 0, 0, 5, 0, 0],
            "split_type": [0, 0, 0, 0, 0, 0, 0, 0, 0, 0, 0],
            "sum_hessian": [
              1.1903379e2, 6.0249653e1, 5.8784134e1, 4.07393e1, 1.9510353e1, 3.503317e1, 5.7061305,
              2.451589, 3.2581577e1, 1.0169875e1, 2.2411703e1
            ],
            "tree_param": {
              "num_deleted": "0",
              "num_feature": "7",
              "num_nodes": "11",
              "size_leaf_vector": "0"
            }
          },
          {
            "base_weights": [
              -3.2593824e-2, 5.754183e-1, -5.064192e-1, 7.8171176e-1, -4.73361e-1, -4.5926782e-1,
              1.052384
            ],
            "categories": [],
            "categories_nodes": [],
            "categories_segments": [],
            "categories_sizes": [],
            "default_left": [1, 1, 0, 1, 0, 0, 0],
            "id": 36,
            "left_children": [1, 3, -1, 5, -1, -1, -1],
            "loss_changes": [3.6271404e1, 1.2305992e1, 0, 1.6095022e1, 0, 0, 0],
            "parents": [2147483647, 0, 0, 1, 1, 3, 3],
            "right_children": [2, 4, -1, 6, -1, -1, -1],
            "split_conditions": [
              6.007392e1, 3.5e1, -1.5192576e-1, 7.497938e1, -1.420083e-1, -1.3778035e-1,
              3.1571522e-1
            ],
            "split_indices": [6, 2, 0, 4, 0, 0, 0],
            "split_type": [0, 0, 0, 0, 0, 0, 0],
            "sum_hessian": [
              1.2389086e2, 5.4168064e1, 6.97228e1, 4.547737e1, 8.690693, 8.018294, 3.7459076e1
            ],
            "tree_param": {
              "num_deleted": "0",
              "num_feature": "7",
              "num_nodes": "7",
              "size_leaf_vector": "0"
            }
          },
          {
            "base_weights": [-4.005547e-2, 9.8533475e-1, -5.0784403e-1],
            "categories": [],
            "categories_nodes": [],
            "categories_segments": [],
            "categories_sizes": [],
            "default_left": [1, 0, 0],
            "id": 37,
            "left_children": [1, -1, -1],
            "loss_changes": [6.0450745e1, 0, 0],
            "parents": [2147483647, 0, 0],
            "right_children": [2, -1, -1],
            "split_conditions": [3.0393478e1, 2.9560044e-1, -1.5235321e-1],
            "split_indices": [6, 0, 0],
            "split_type": [0, 0, 0],
            "sum_hessian": [1.2398357e2, 3.8495422e1, 8.5488144e1],
            "tree_param": {
              "num_deleted": "0",
              "num_feature": "7",
              "num_nodes": "3",
              "size_leaf_vector": "0"
            }
          },
          {
            "base_weights": [
              -4.083187e-2, 9.724515e-1, -5.0752544e-1, 1.1344593, -4.099094e-1, 1.0147111, 2.452829
            ],
            "categories": [],
            "categories_nodes": [],
            "categories_segments": [],
            "categories_sizes": [],
            "default_left": [1, 1, 0, 1, 0, 0, 0],
            "id": 38,
            "left_children": [1, 3, -1, 5, -1, -1, -1],
            "loss_changes": [5.7526005e1, 9.058964, 0, 2.9756355, 0, 0, 0],
            "parents": [2147483647, 0, 0, 1, 1, 3, 3],
            "right_children": [2, 4, -1, 6, -1, -1, -1],
            "split_conditions": [
              1.55e1, 3.25e1, -1.5225764e-1, 1.45e1, -1.2297282e-1, 3.0441335e-1, 7.3584867e-1
            ],
            "split_indices": [2, 1, 0, 2, 0, 0, 0],
            "split_type": [0, 0, 0, 0, 0, 0, 0],
            "sum_hessian": [
              1.19603355e2, 3.73738e1, 8.222955e1, 3.3613724e1, 3.7600763, 3.243712e1, 1.1766059
            ],
            "tree_param": {
              "num_deleted": "0",
              "num_feature": "7",
              "num_nodes": "7",
              "size_leaf_vector": "0"
            }
          },
          {
            "base_weights": [
              3.765664e-2, -5.064281e-1, 7.007563e-1, -4.7749788e-1, 1.0717477, 1.2293617,
              -4.0800002e-1
            ],
            "categories": [],
            "categories_nodes": [],
            "categories_segments": [],
            "categories_sizes": [],
            "default_left": [1, 0, 1, 0, 1, 0, 0],
            "id": 39,
            "left_children": [1, -1, 3, -1, 5, -1, -1],
            "loss_changes": [4.5276478e1, 0, 2.522558e1, 0, 1.060202e1, 0, 0],
            "parents": [2147483647, 0, 0, 2, 2, 4, 4],
            "right_children": [2, -1, 4, -1, 6, -1, -1],
            "split_conditions": [
              9.00372e1, -1.5192844e-1, 3.8e1, -1.4324936e-1, 9.5e1, 3.688085e-1, -1.2240001e-1
            ],
            "split_indices": [4, 0, 1, 0, 1, 0, 0],
            "split_type": [0, 0, 0, 0, 0, 0, 0],
            "sum_hessian": [
              1.2351159e2, 6.7974014e1, 5.5537582e1, 1.3230604e1, 4.2306976e1, 3.8387386e1,
              3.9195895
            ],
            "tree_param": {
              "num_deleted": "0",
              "num_feature": "7",
              "num_nodes": "7",
              "size_leaf_vector": "0"
            }
          },
          {
            "base_weights": [
              5.9961986e-2, 5.069448e-1, -5.040709e-1, -4.9121177e-1, 9.45509e-1, -4.6002513e-1,
              1.254502, -4.2124316e-1, 1.4674244, 3.1469996, 1.2021141, 1.0381578, 2.597633
            ],
            "categories": [],
            "categories_nodes": [],
            "categories_segments": [],
            "categories_sizes": [],
            "default_left": [1, 1, 0, 0, 1, 0, 1, 0, 1, 0, 1, 0, 0],
            "id": 40,
            "left_children": [1, 3, -1, -1, 5, -1, 7, -1, 9, -1, 11, -1, -1],
            "loss_changes": [
              3.0959045e1, 3.042477e1, 0, 0, 2.1376114e1, 0, 1.4721958e1, 0, 1.1944702e1, 0,
              4.64748, 0, 0
            ],
            "parents": [2147483647, 0, 0, 1, 1, 4, 4, 6, 6, 8, 8, 10, 10],
            "right_children": [2, 4, -1, -1, 6, -1, 8, -1, 10, -1, 12, -1, -1],
            "split_conditions": [
              6.9692535e1, 9.0017235e1, -1.5122128e-1, -1.4736354e-1, 5.45e1, -1.3800755e-1,
              2.7685081e1, -1.2637295e-1, 1.0882872e2, 9.440999e-1, 6.1519463e1, 3.1144735e-1,
              7.792899e-1
            ],
            "split_indices": [4, 6, 0, 0, 1, 0, 4, 0, 6, 0, 4, 0, 0],
            "split_type": [0, 0, 0, 0, 0, 0, 0, 0, 0, 0, 0, 0, 0],
            "sum_hessian": [
              1.2078472e2, 6.7440735e1, 5.3343987e1, 2.0549885e1, 4.689085e1, 8.362606, 3.8528244e1,
              4.2332497, 3.4294994e1, 3.1966546, 3.109834e1, 2.9389372e1, 1.7089674
            ],
            "tree_param": {
              "num_deleted": "0",
              "num_feature": "7",
              "num_nodes": "13",
              "size_leaf_vector": "0"
            }
          },
          {
            "base_weights": [
              -2.019509e-2, 4.974995e-1, -5.062509e-1, 8.448844e-1, -4.8307395e-1, -3.8479432e-1,
              9.381082e-1, 9.725002e-1, -2.5727537e-1
            ],
            "categories": [],
            "categories_nodes": [],
            "categories_segments": [],
            "categories_sizes": [],
            "default_left": [1, 1, 0, 1, 0, 0, 1, 0, 0],
            "id": 41,
            "left_children": [1, 3, -1, 5, -1, -1, 7, -1, -1],
            "loss_changes": [3.2451534e1, 2.1687756e1, 0, 5.6906204, 0, 0, 2.0388336, 0, 0],
            "parents": [2147483647, 0, 0, 1, 1, 3, 3, 6, 6],
            "right_children": [2, 4, -1, 6, -1, -1, 8, -1, -1],
            "split_conditions": [
              3.05e1, 2.4978626e1, -1.5187529e-1, 3.45e1, -1.449222e-1, -1.15438305e-1, 6e1,
              2.9175007e-1, -7.718261e-2
            ],
            "split_indices": [1, 3, 0, 2, 0, 0, 0, 0, 0],
            "split_type": [0, 0, 0, 0, 0, 0, 0, 0, 0],
            "sum_hessian": [
              1.2696513e2, 6.1470165e1, 6.549497e1, 4.5492165e1, 1.5977999e1, 2.9853916, 4.250677e1,
              4.1499264e1, 1.0075086
            ],
            "tree_param": {
              "num_deleted": "0",
              "num_feature": "7",
              "num_nodes": "9",
              "size_leaf_vector": "0"
            }
          },
          {
            "base_weights": [
              2.9700398e-2, -5.07217e-1, 9.330283e-1, -4.0841207e-1, 1.0599833, -3.4882766e-1,
              1.1403309, 1.7274776, 9.9778676e-1
            ],
            "categories": [],
            "categories_nodes": [],
            "categories_segments": [],
            "categories_sizes": [],
            "default_left": [1, 0, 1, 0, 1, 0, 1, 0, 0],
            "id": 42,
            "left_children": [1, -1, 3, -1, 5, -1, 7, -1, -1],
            "loss_changes": [6.148281e1, 0, 8.479031, 0, 5.3148766, 0, 1.7354202, 0, 0],
            "parents": [2147483647, 0, 0, 2, 2, 4, 4, 6, 6],
            "right_children": [2, -1, 4, -1, 6, -1, 8, -1, -1],
            "split_conditions": [
              1.8246188e2, -1.521651e-1, 5.9e1, -1.2252363e-1, 7.995938e1, -1.046483e-1,
              1.9938068e2, 5.182433e-1, 2.9933605e-1
            ],
            "split_indices": [6, 0, 0, 0, 4, 0, 6, 0, 0],
            "split_type": [0, 0, 0, 0, 0, 0, 0, 0, 0],
            "sum_hessian": [
              1.24789696e2, 7.8543655e1, 4.624604e1, 3.8066776, 4.2439365e1, 2.1095283, 4.0329834e1,
              5.70632, 3.4623516e1
            ],
            "tree_param": {
              "num_deleted": "0",
              "num_feature": "7",
              "num_nodes": "9",
              "size_leaf_vector": "0"
            }
          },
          {
            "base_weights": [
              -1.2614088e-2, 5.799931e-1, -5.0642794e-1, -4.752638e-1, 8.567339e-1, 9.709385e-1,
              -4.0166944e-1
            ],
            "categories": [],
            "categories_nodes": [],
            "categories_segments": [],
            "categories_sizes": [],
            "default_left": [1, 1, 0, 0, 1, 0, 0],
            "id": 43,
            "left_children": [1, 3, -1, -1, 5, -1, -1],
            "loss_changes": [3.8001522e1, 1.7647293e1, 0, 0, 7.1627884, 0, 0],
            "parents": [2147483647, 0, 0, 1, 1, 4, 4],
            "right_children": [2, 4, -1, -1, 6, -1, -1],
            "split_conditions": [
              5.9815228e1, 7.4e1, -1.519284e-1, -1.4257915e-1, 2.7005093e1, 2.9128155e-1,
              -1.2050084e-1
            ],
            "split_indices": [6, 0, 0, 0, 3, 0, 0],
            "split_type": [0, 0, 0, 0, 0, 0, 0],
            "sum_hessian": [
              1.2785491e2, 5.8034904e1, 6.982001e1, 1.1908505e1, 4.61264e1, 4.2497993e1, 3.628408
            ],
            "tree_param": {
              "num_deleted": "0",
              "num_feature": "7",
              "num_nodes": "7",
              "size_leaf_vector": "0"
            }
          },
          {
            "base_weights": [-8.195576e-3, -5.032284e-1, 7.05752e-1, -3.8624945e-1, 7.9561543e-1],
            "categories": [],
            "categories_nodes": [],
            "categories_segments": [],
            "categories_sizes": [],
            "default_left": [1, 0, 1, 0, 0],
            "id": 44,
            "left_children": [1, -1, 3, -1, -1],
            "loss_changes": [3.9164917e1, 0, 4.760418, 0, 0],
            "parents": [2147483647, 0, 0, 2, 2],
            "right_children": [2, -1, 4, -1, -1],
            "split_conditions": [1.075e2, -1.5096854e-1, 8.700464e1, -1.1587484e-1, 2.3868464e-1],
            "split_indices": [1, 0, 4, 0, 0],
            "split_type": [0, 0, 0, 0, 0],
            "sum_hessian": [1.0880968e2, 6.443042e1, 4.437925e1, 3.1236107, 4.125564e1],
            "tree_param": {
              "num_deleted": "0",
              "num_feature": "7",
              "num_nodes": "5",
              "size_leaf_vector": "0"
            }
          },
          {
            "base_weights": [-2.1282364e-2, -5.018566e-1, 4.695721e-1, -4.7537625e-1, 7.981333e-1],
            "categories": [],
            "categories_nodes": [],
            "categories_segments": [],
            "categories_sizes": [],
            "default_left": [1, 0, 1, 0, 0],
            "id": 45,
            "left_children": [1, -1, 3, -1, -1],
            "loss_changes": [2.5747213e1, 0, 1.7150879e1, 0, 0],
            "parents": [2147483647, 0, 0, 2, 2],
            "right_children": [2, -1, 4, -1, -1],
            "split_conditions": [6.95e1, -1.50557e-1, 7.4e1, -1.4261287e-1, 2.3944001e-1],
            "split_indices": [1, 0, 0, 0, 0],
            "split_type": [0, 0, 0, 0, 0],
            "sum_hessian": [1.0714929e2, 5.4130276e1, 5.3019016e1, 1.3563446e1, 3.945557e1],
            "tree_param": {
              "num_deleted": "0",
              "num_feature": "7",
              "num_nodes": "5",
              "size_leaf_vector": "0"
            }
          },
          {
            "base_weights": [
              5.086747e-3, 3.4615016e-1, -4.9951097e-1, 6.075734e-1, -4.938116e-1, -4.4368133e-1,
              7.68603e-1, -3.7228292e-1, 8.499197e-1, -2.7570117e-1, 8.88016e-1, 1.698811,
              8.2446086e-1
            ],
            "categories": [],
            "categories_nodes": [],
            "categories_segments": [],
            "categories_sizes": [],
            "default_left": [1, 1, 0, 1, 0, 0, 1, 0, 1, 0, 1, 0, 0],
            "id": 46,
            "left_children": [1, 3, -1, 5, -1, -1, 7, -1, 9, -1, 11, -1, -1],
            "loss_changes": [
              1.9076176e1, 1.482133e1, 0, 8.954519, 0, 0, 4.4438324, 0, 2.0387573, 0, 6.9675064e-1,
              0, 0
            ],
            "parents": [2147483647, 0, 0, 1, 1, 3, 3, 6, 6, 8, 8, 10, 10],
            "right_children": [2, 4, -1, 6, -1, -1, 8, -1, 10, -1, 12, -1, -1],
            "split_conditions": [
              7.497404e1, 7.073874e1, -1.498533e-1, 6.0346714e1, -1.4814349e-1, -1.331044e-1,
              5.986399e1, -1.1168488e-1, 5.45e1, -8.2710356e-2, 5.75e1, 5.096433e-1, 2.4733827e-1
            ],
            "split_indices": [6, 4, 0, 6, 0, 0, 4, 0, 1, 0, 1, 0, 0],
            "split_type": [0, 0, 0, 0, 0, 0, 0, 0, 0, 0, 0, 0, 0],
            "sum_hessian": [
              1.0883898e2, 6.513052e1, 4.370846e1, 4.988223e1, 1.5248295e1, 6.3927784, 4.348945e1,
              2.6554115, 4.0834038e1, 1.1325963, 3.9701443e1, 1.0155821, 3.868586e1
            ],
            "tree_param": {
              "num_deleted": "0",
              "num_feature": "7",
              "num_nodes": "13",
              "size_leaf_vector": "0"
            }
          },
          {
            "base_weights": [-2.7858652e-2, 7.929295e-1, -5.034436e-1, -1.9319957e-2, 8.230763e-1],
            "categories": [],
            "categories_nodes": [],
            "categories_segments": [],
            "categories_sizes": [],
            "default_left": [1, 1, 0, 0, 0],
            "id": 47,
            "left_children": [1, 3, -1, -1, -1],
            "loss_changes": [4.186362e1, 9.796276e-1, 0, 0, 0],
            "parents": [2147483647, 0, 0, 1, 1],
            "right_children": [2, 4, -1, -1, -1],
            "split_conditions": [1.999355e1, 5.9929624, -1.5103309e-1, -5.7959873e-3, 2.469229e-1],
            "split_indices": [4, 5, 0, 0, 0],
            "split_type": [0, 0, 0, 0, 0],
            "sum_hessian": [1.05222496e2, 3.835693e1, 6.686556e1, 1.3855343, 3.6971394e1],
            "tree_param": {
              "num_deleted": "0",
              "num_feature": "7",
              "num_nodes": "5",
              "size_leaf_vector": "0"
            }
          },
          {
            "base_weights": [
              2.3979614e-2, -5.0175464e-1, 5.6413287e-1, -4.7053197e-1, 8.712339e-1, 9.386737e-1,
              -3.3720133e-1
            ],
            "categories": [],
            "categories_nodes": [],
            "categories_segments": [],
            "categories_sizes": [],
            "default_left": [1, 0, 1, 0, 1, 0, 0],
            "id": 48,
            "left_children": [1, -1, 3, -1, 5, -1, -1],
            "loss_changes": [3.0729149e1, 0, 1.7362413e1, 0, 3.697956, 0, 0],
            "parents": [2147483647, 0, 0, 2, 2, 4, 4],
            "right_children": [2, -1, 4, -1, 6, -1, -1],
            "split_conditions": [
              9.0016205e1, -1.505264e-1, 1.291705e2, -1.411596e-1, 3.8e1, 2.816021e-1, -1.011604e-1
            ],
            "split_indices": [4, 0, 6, 0, 1, 0, 0],
            "split_type": [0, 0, 0, 0, 0, 0, 0],
            "sum_hessian": [
              1.062132e2, 5.3861042e1, 5.2352165e1, 1.1860467e1, 4.04917e1, 3.856283e1, 1.9288659
            ],
            "tree_param": {
              "num_deleted": "0",
              "num_feature": "7",
              "num_nodes": "7",
              "size_leaf_vector": "0"
            }
          },
          {
            "base_weights": [
              -2.7043223e-2, -5.0132895e-1, 4.196262e-1, 7.973183e-1, -4.804022e-1, -3.3098776e-2,
              8.290329e-1
            ],
            "categories": [],
            "categories_nodes": [],
            "categories_segments": [],
            "categories_sizes": [],
            "default_left": [1, 0, 1, 1, 0, 0, 0],
            "id": 49,
            "left_children": [1, -1, 3, 5, -1, -1, -1],
            "loss_changes": [2.2779556e1, 0, 1.9218357e1, 1.0652523, 0, 0, 0],
            "parents": [2147483647, 0, 0, 2, 2, 3, 3],
            "right_children": [2, -1, 4, 6, -1, -1, -1],
            "split_conditions": [
              7.95e1, -1.5039869e-1, 7.0403145e1, 1.1623388e2, -1.4412066e-1, -9.929633e-3,
              2.4870987e-1
            ],
            "split_indices": [0, 0, 4, 6, 0, 0, 0],
            "split_type": [0, 0, 0, 0, 0, 0, 0],
            "sum_hessian": [
              1.0553435e2, 5.112552e1, 5.4408833e1, 3.8406055e1, 1.6002775e1, 1.4112104, 3.6994846e1
            ],
            "tree_param": {
              "num_deleted": "0",
              "num_feature": "7",
              "num_nodes": "7",
              "size_leaf_vector": "0"
            }
          },
          {
            "base_weights": [
              3.071624e-2, -5.027323e-1, 7.053841e-1, 8.827871e-1, -4.3905747e-1, -3.8968894e-1,
              9.4293e-1
            ],
            "categories": [],
            "categories_nodes": [],
            "categories_segments": [],
            "categories_sizes": [],
            "default_left": [1, 0, 1, 1, 0, 0, 0],
            "id": 50,
            "left_children": [1, -1, 3, 5, -1, -1, -1],
            "loss_changes": [3.9787334e1, 0, 1.0294363e1, 3.626011, 0, 0, 0],
            "parents": [2147483647, 0, 0, 2, 2, 3, 3],
            "right_children": [2, -1, 4, 6, -1, -1, -1],
            "split_conditions": [
              9.95e1, -1.5081969e-1, 2.55e1, 7.174284e1, -1.3171725e-1, -1.1690669e-1, 2.82879e-1
            ],
            "split_indices": [0, 0, 2, 4, 0, 0, 0],
            "split_type": [0, 0, 0, 0, 0, 0, 0],
            "sum_hessian": [
              1.0856558e2, 6.077034e1, 4.7795242e1, 4.1578655e1, 6.2165904, 1.6292081, 3.9949444e1
            ],
            "tree_param": {
              "num_deleted": "0",
              "num_feature": "7",
              "num_nodes": "7",
              "size_leaf_vector": "0"
            }
          },
          {
            "base_weights": [-2.376374e-2, -5.032284e-1, 7.011188e-1, 8.0006665e-1, -3.904382e-1],
            "categories": [],
            "categories_nodes": [],
            "categories_segments": [],
            "categories_sizes": [],
            "default_left": [1, 0, 1, 0, 0],
            "id": 51,
            "left_children": [1, -1, 3, -1, -1],
            "loss_changes": [3.7798935e1, 0, 4.9902706, 0, 0],
            "parents": [2147483647, 0, 0, 2, 2],
            "right_children": [2, -1, 4, -1, -1],
            "split_conditions": [1.075e2, -1.5096854e-1, 8.700464e1, 2.4002e-1, -1.17131464e-1],
            "split_indices": [1, 0, 4, 0, 0],
            "split_type": [0, 0, 0, 0, 0],
            "sum_hessian": [1.0674136e2, 6.443042e1, 4.231094e1, 3.9039146e1, 3.2717931],
            "tree_param": {
              "num_deleted": "0",
              "num_feature": "7",
              "num_nodes": "5",
              "size_leaf_vector": "0"
            }
          },
          {
            "base_weights": [
              -9.310996e-3, -5.0187457e-1, 5.3373754e-1, -4.3525067e-1, 6.602523e-1, -4.403184e-1,
              7.531079e-1, -4.672824e-1, 8.5444134e-1, 9.168649e-1, -3.2589358e-1, -2.8266758e-1,
              9.577438e-1
            ],
            "categories": [],
            "categories_nodes": [],
            "categories_segments": [],
            "categories_sizes": [],
            "default_left": [1, 0, 1, 0, 1, 0, 1, 0, 1, 1, 0, 0, 0],
            "id": 52,
            "left_children": [1, -1, 3, -1, 5, -1, 7, -1, 9, 11, -1, -1, -1],
            "loss_changes": [
              2.9371704e1, 0, 6.6909456, 0, 5.093857, 0, 5.7593594, 0, 3.2735672, 2.1638908, 0, 0, 0
            ],
            "parents": [2147483647, 0, 0, 2, 2, 4, 4, 6, 6, 8, 8, 9, 9],
            "right_children": [2, -1, 4, -1, 6, -1, 8, -1, 10, 12, -1, -1, -1],
            "split_conditions": [
              1.5025891e2, -1.5056238e-1, 5.9e1, -1.3057521e-1, 7.029722e1, -1.3209553e-1,
              2.3076193e1, -1.4018473e-1, 2.003356e2, 5.976593, -9.7768076e-2, -8.480027e-2,
              2.8732315e-1
            ],
            "split_indices": [6, 0, 0, 0, 4, 0, 3, 0, 6, 5, 0, 0, 0],
            "split_type": [0, 0, 0, 0, 0, 0, 0, 0, 0, 0, 0, 0, 0],
            "sum_hessian": [
              1.0780511e2, 5.6570004e1, 5.1235107e1, 5.6350927, 4.5600014e1, 3.256804, 4.234321e1,
              2.9694803, 3.937373e1, 3.7607998e1, 1.7657319, 1.0444818, 3.6563515e1
            ],
            "tree_param": {
              "num_deleted": "0",
              "num_feature": "7",
              "num_nodes": "13",
              "size_leaf_vector": "0"
            }
          },
          {
            "base_weights": [-8.851609e-3, 7.1163946e-1, -5.032233e-1, 8.0107975e-1, -3.8487566e-1],
            "categories": [],
            "categories_nodes": [],
            "categories_segments": [],
            "categories_sizes": [],
            "default_left": [1, 1, 0, 0, 0],
            "id": 53,
            "left_children": [1, 3, -1, -1, -1],
            "loss_changes": [3.9368458e1, 4.7198486, 0, 0, 0],
            "parents": [2147483647, 0, 0, 1, 1],
            "right_children": [2, 4, -1, -1, -1],
            "split_conditions": [2.7685081e1, 5e1, -1.50967e-1, 2.4032393e-1, -1.154627e-1],
            "split_indices": [4, 2, 0, 0, 0],
            "split_type": [0, 0, 0, 0, 0],
            "sum_hessian": [1.0852104e2, 4.3982304e1, 6.4538734e1, 4.0914433e1, 3.067868],
            "tree_param": {
              "num_deleted": "0",
              "num_feature": "7",
              "num_nodes": "5",
              "size_leaf_vector": "0"
            }
          },
          {
            "base_weights": [
              1.4296862e-2, 6.159574e-1, -5.0209624e-1, -4.647984e-1, 8.855062e-1, 9.652001e-1,
              -4.0792525e-1, -3.0855888e-1, 1.0177104, 1.5936346, 9.0563005e-1
            ],
            "categories": [],
            "categories_nodes": [],
            "categories_segments": [],
            "categories_sizes": [],
            "default_left": [1, 1, 0, 0, 1, 1, 0, 0, 1, 0, 0],
            "id": 54,
            "left_children": [1, 3, -1, -1, 5, 7, -1, -1, 9, -1, -1],
            "loss_changes": [
              3.3634808e1, 1.4974457e1, 0, 0, 4.5534744, 2.8764076, 0, 0, 9.467735e-1, 0, 0
            ],
            "parents": [2147483647, 0, 0, 1, 1, 4, 4, 5, 5, 8, 8],
            "right_children": [2, 4, -1, -1, 6, 8, -1, -1, 10, -1, -1],
            "split_conditions": [
              5.4950294e1, 5.55e1, -1.5062888e-1, -1.3943952e-1, 7.548465e1, 6.0178802e1,
              -1.2237758e-1, -9.256767e-2, 5.95e1, 4.780904e-1, 2.7168903e-1
            ],
            "split_indices": [6, 1, 0, 0, 4, 4, 0, 0, 1, 0, 0],
            "split_type": [0, 0, 0, 0, 0, 0, 0, 0, 0, 0, 0],
            "sum_hessian": [
              1.0626184e2, 4.8989883e1, 5.7271954e1, 9.634802, 3.9355083e1, 3.7310017e1, 2.0450654,
              1.2841384, 3.602588e1, 3.7154422, 3.2310436e1
            ],
            "tree_param": {
              "num_deleted": "0",
              "num_feature": "7",
              "num_nodes": "11",
              "size_leaf_vector": "0"
            }
          },
          {
            "base_weights": [
              -1.0460196e-2, -4.9993676e-1, 3.4983176e-1, 7.461607e-1, -4.860386e-1, 8.761935e-1,
              -4.0818667e-1, 8.96021e-1, 2.0871736e-1, 8.1804127e-1, 1.3591793, 3.697951e-1,
              1.6171092
            ],
            "categories": [],
            "categories_nodes": [],
            "categories_segments": [],
            "categories_sizes": [],
            "default_left": [1, 0, 1, 1, 0, 1, 0, 1, 0, 0, 1, 0, 0],
            "id": 55,
            "left_children": [1, -1, 3, 5, -1, 7, -1, 9, -1, -1, 11, -1, -1],
            "loss_changes": [
              1.8964247e1, 0, 2.0888216e1, 6.725672, 0, 3.2180595e-1, 0, 2.2569847e-1, 0, 0,
              3.7812138e-1, 0, 0
            ],
            "parents": [2147483647, 0, 0, 2, 2, 3, 3, 5, 5, 7, 7, 10, 10],
            "right_children": [2, -1, 4, 6, -1, 8, -1, 10, -1, -1, 12, -1, -1],
            "split_conditions": [
              5.95e1, -1.4998104e-1, 7.486189e1, 1.1218631e2, -1.4581159e-1, 6.8361406,
              -1.2245601e-1, 2.35e1, 6.261521e-2, 2.454124e-1, 6.1349525e1, 1.1093854e-1,
              4.8513278e-1
            ],
            "split_indices": [0, 0, 4, 6, 0, 5, 0, 2, 0, 0, 4, 0, 0],
            "split_type": [0, 0, 0, 0, 0, 0, 0, 0, 0, 0, 0, 0, 0],
            "sum_hessian": [
              1.05543106e2, 4.4584713e1, 6.0958393e1, 4.1424324e1, 1.953407e1, 3.744702e1,
              3.9773037, 3.603422e1, 1.4128009, 3.3209175e1, 2.8250463, 1.087448, 1.7375983
            ],
            "tree_param": {
              "num_deleted": "0",
              "num_feature": "7",
              "num_nodes": "13",
              "size_leaf_vector": "0"
            }
          },
          {
            "base_weights": [
              -1.812088e-2, 5.573141e-1, -5.018625e-1, 8.6077994e-1, -4.6720615e-1, 9.07465e-1,
              -2.8803912e-1, 9.37879e-1, 1.6082121e-2, 1.5456134, 8.6202556e-1
            ],
            "categories": [],
            "categories_nodes": [],
            "categories_segments": [],
            "categories_sizes": [],
            "default_left": [1, 1, 0, 1, 0, 1, 0, 1, 0, 0, 0],
            "id": 56,
            "left_children": [1, 3, -1, 5, -1, 7, -1, 9, -1, -1, -1],
            "loss_changes": [
              2.915444e1, 1.5278835e1, 0, 2.2601032, 0, 9.623184e-1, 0, 2.7397346e-1, 0, 0, 0
            ],
            "parents": [2147483647, 0, 0, 1, 1, 3, 3, 5, 5, 7, 7],
            "right_children": [2, 4, -1, 6, -1, 8, -1, 10, -1, -1, -1],
            "split_conditions": [
              5.507599e1, 4.05e1, -1.5055877e-1, 6.9706287, -1.4016186e-1, 1.00785545e2,
              -8.641174e-2, 2.55e1, 4.8246365e-3, 4.6368405e-1, 2.586077e-1
            ],
            "split_indices": [4, 1, 0, 5, 0, 6, 0, 2, 0, 0, 0],
            "split_type": [0, 0, 0, 0, 0, 0, 0, 0, 0, 0, 0],
            "sum_hessian": [
              1.02730965e2, 4.684929e1, 5.5881676e1, 3.6266785e1, 1.0582504e1, 3.5052433e1,
              1.214352, 3.3845463e1, 1.2069708, 1.605551, 3.2239914e1
            ],
            "tree_param": {
              "num_deleted": "0",
              "num_feature": "7",
              "num_nodes": "11",
              "size_leaf_vector": "0"
            }
          },
          {
            "base_weights": [
              9.69291e-2, 5.510334e-1, -4.9990168e-1, 9.0628934e-1, -4.8336628e-1, 1.0612586,
              -4.202001e-1, -3.8237834e-1, 1.1462134, 1.1758348, 5.190199e-1, 1.3063886,
              9.1940653e-1, 6.573478e-1, 1.1016349e-1
            ],
            "categories": [],
            "categories_nodes": [],
            "categories_segments": [],
            "categories_sizes": [],
            "default_left": [1, 1, 0, 1, 0, 1, 0, 0, 1, 1, 1, 0, 0, 0, 0],
            "id": 57,
            "left_children": [1, 3, -1, 5, -1, 7, -1, -1, 9, 11, 13, -1, -1, -1, -1],
            "loss_changes": [
              2.974606e1, 2.3305624e1, 0, 1.00392685e1, 0, 5.5979195, 0, 0, 1.3251877e-1,
              5.0582886e-2, 1.3081002e-1, 0, 0, 0, 0
            ],
            "parents": [2147483647, 0, 0, 1, 1, 3, 3, 5, 5, 8, 8, 9, 9, 10, 10],
            "right_children": [2, 4, -1, 6, -1, 8, -1, -1, 10, 12, 14, -1, -1, -1, -1],
            "split_conditions": [
              6.497164e1, 7.448206e1, -1.4997052e-1, 5.95e1, -1.4500989e-1, 2.3760616e1,
              -1.2606004e-1, -1.14713505e-1, 3.95e1, 8.004057, 5.542616e1, 3.919166e-1,
              2.7582198e-1, 1.9720435e-1, 3.3049047e-2
            ],
            "split_indices": [4, 6, 0, 1, 0, 3, 0, 0, 0, 5, 4, 0, 0, 0, 0],
            "split_type": [0, 0, 0, 0, 0, 0, 0, 0, 0, 0, 0, 0, 0, 0, 0],
            "sum_hessian": [
              1.0773819e2, 6.1228584e1, 4.6509605e1, 4.5668102e1, 1.5560481e1, 4.106999e1, 4.598117,
              2.0879817, 3.8982006e1, 3.6388668e1, 2.5933375, 2.1399242e1, 1.4989426e1, 1.4836156,
              1.1097218
            ],
            "tree_param": {
              "num_deleted": "0",
              "num_feature": "7",
              "num_nodes": "15",
              "size_leaf_vector": "0"
            }
          },
          {
            "base_weights": [
              -3.23918e-2, 4.8734003e-1, -5.01808e-1, 6.481683e-1, -4.5861036e-1, -4.4452336e-1,
              8.4854186e-1
            ],
            "categories": [],
            "categories_nodes": [],
            "categories_segments": [],
            "categories_sizes": [],
            "default_left": [1, 1, 0, 1, 0, 0, 0],
            "id": 58,
            "left_children": [1, 3, -1, 5, -1, -1, -1],
            "loss_changes": [2.61405e1, 8.037848, 0, 9.989058, 0, 0, 0],
            "parents": [2147483647, 0, 0, 1, 1, 3, 3],
            "right_children": [2, 4, -1, 6, -1, -1, -1],
            "split_conditions": [
              6.007392e1, 3.5e1, -1.5054241e-1, 7.497938e1, -1.375831e-1, -1.3335702e-1,
              2.5456256e-1
            ],
            "split_indices": [6, 2, 0, 4, 0, 0, 0],
            "split_type": [0, 0, 0, 0, 0, 0, 0],
            "sum_hessian": [
              1.0514375e2, 4.9879547e1, 5.5264202e1, 4.2900497e1, 6.9790483, 6.4590507, 3.644145e1
            ],
            "tree_param": {
              "num_deleted": "0",
              "num_feature": "7",
              "num_nodes": "7",
              "size_leaf_vector": "0"
            }
          },
          {
            "base_weights": [-3.886515e-2, 8.058937e-1, -5.035127e-1],
            "categories": [],
            "categories_nodes": [],
            "categories_segments": [],
            "categories_sizes": [],
            "default_left": [1, 0, 0],
            "id": 59,
            "left_children": [1, -1, -1],
            "loss_changes": [4.1829033e1, 0, 0],
            "parents": [2147483647, 0, 0],
            "right_children": [2, -1, -1],
            "split_conditions": [3.0393478e1, 2.4176812e-1, -1.5105382e-1],
            "split_indices": [6, 0, 0],
            "split_type": [0, 0, 0],
            "sum_hessian": [1.045329e2, 3.683326e1, 6.769964e1],
            "tree_param": {
              "num_deleted": "0",
              "num_feature": "7",
              "num_nodes": "3",
              "size_leaf_vector": "0"
            }
          },
          {
            "base_weights": [
              -3.5097882e-2, 7.882909e-1, -5.0314116e-1, 9.0326893e-1, -3.8793838e-1, 8.203873e-1,
              1.4730887
            ],
            "categories": [],
            "categories_nodes": [],
            "categories_segments": [],
            "categories_sizes": [],
            "default_left": [1, 1, 0, 1, 0, 0, 0],
            "id": 60,
            "left_children": [1, 3, -1, 5, -1, -1, -1],
            "loss_changes": [3.99769e1, 5.4370537, 0, 4.238243e-1, 0, 0, 0],
            "parents": [2147483647, 0, 0, 1, 1, 3, 3],
            "right_children": [2, 4, -1, 6, -1, -1, -1],
            "split_conditions": [
              1.55e1, 3.25e1, -1.5094236e-1, 1.45e1, -1.1638152e-1, 2.461162e-1, 4.4192663e-1
            ],
            "split_indices": [2, 1, 0, 2, 0, 0, 0],
            "split_type": [0, 0, 0, 0, 0, 0, 0],
            "sum_hessian": [
              1.0170412e2, 3.6611824e1, 6.509229e1, 3.3563053e1, 3.0487695, 3.1431063e1, 2.1319904
            ],
            "tree_param": {
              "num_deleted": "0",
              "num_feature": "7",
              "num_nodes": "7",
              "size_leaf_vector": "0"
            }
          },
          {
            "base_weights": [
              3.4294266e-2, -5.0175065e-1, 5.7561266e-1, -4.6652934e-1, 8.372072e-1, 9.42109e-1,
              -3.8723022e-1
            ],
            "categories": [],
            "categories_nodes": [],
            "categories_segments": [],
            "categories_sizes": [],
            "default_left": [1, 0, 1, 0, 1, 0, 0],
            "id": 61,
            "left_children": [1, -1, 3, -1, 5, -1, -1],
            "loss_changes": [3.1690432e1, 0, 1.5196413e1, 0, 5.9869194, 0, 0],
            "parents": [2147483647, 0, 0, 2, 2, 4, 4],
            "right_children": [2, -1, 4, -1, 6, -1, -1],
            "split_conditions": [
              9.00372e1, -1.505252e-1, 3.8e1, -1.3995881e-1, 9.5e1, 2.826327e-1, -1.1616907e-1
            ],
            "split_indices": [4, 0, 1, 0, 1, 0, 0],
            "split_type": [0, 0, 0, 0, 0, 0, 0],
            "sum_hessian": [
              1.07217636e2, 5.3907948e1, 5.3309685e1, 1.0539389e1, 4.2770298e1, 3.9607555e1, 3.16274
            ],
            "tree_param": {
              "num_deleted": "0",
              "num_feature": "7",
              "num_nodes": "7",
              "size_leaf_vector": "0"
            }
          },
          {
            "base_weights": [
              5.7739325e-2, 4.2170385e-1, -4.9883074e-1, -4.8271462e-1, 7.309583e-1, -4.4606003e-1,
              9.270359e-1, -3.9964527e-1, 1.0525272, 1.0955518, -2.9780838e-1, 1.6108476,
              9.5375425e-1
            ],
            "categories": [],
            "categories_nodes": [],
            "categories_segments": [],
            "categories_sizes": [],
            "default_left": [1, 1, 0, 0, 1, 0, 1, 0, 1, 1, 0, 0, 0],
            "id": 62,
            "left_children": [1, 3, -1, -1, 5, -1, 7, -1, 9, 11, -1, -1, -1],
            "loss_changes": [
              2.2098722e1, 1.8776974e1, 0, 0, 1.18340225e1, 0, 7.536865, 0, 2.6109505, 1.2639236, 0,
              0, 0
            ],
            "parents": [2147483647, 0, 0, 1, 1, 4, 4, 6, 6, 8, 8, 9, 9],
            "right_children": [2, 4, -1, -1, 6, -1, 8, -1, 10, 12, -1, -1, -1],
            "split_conditions": [
              6.9692535e1, 9.0017235e1, -1.4964923e-1, -1.4481439e-1, 5.45e1, -1.3381802e-1,
              2.7685081e1, -1.1989359e-1, 5.05e1, 1.08907715e2, -8.934252e-2, 4.8325428e-1,
              2.861263e-1
            ],
            "split_indices": [4, 6, 0, 0, 1, 0, 4, 0, 0, 6, 0, 0, 0],
            "split_type": [0, 0, 0, 0, 0, 0, 0, 0, 0, 0, 0, 0, 0],
            "sum_hessian": [
              1.070524e2, 6.4872116e1, 4.2180283e1, 1.6387058e1, 4.8485058e1, 6.7415934,
              4.1743465e1, 3.4185238, 3.832494e1, 3.7324387e1, 1.0005543, 5.818743, 3.1505642e1
            ],
            "tree_param": {
              "num_deleted": "0",
              "num_feature": "7",
              "num_nodes": "13",
              "size_leaf_vector": "0"
            }
          },
          {
            "base_weights": [
              -2.2513358e-2, 4.26865e-1, -5.0147295e-1, 6.9922924e-1, -4.7335604e-1, -3.631173e-1,
              7.710617e-1, -1.2486949e-2, 7.9668427e-1
            ],
            "categories": [],
            "categories_nodes": [],
            "categories_segments": [],
            "categories_sizes": [],
            "default_left": [1, 1, 0, 1, 0, 0, 1, 0, 0],
            "id": 63,
            "left_children": [1, 3, -1, 5, -1, -1, 7, -1, -1],
            "loss_changes": [2.3545265e1, 1.4175976e1, 0, 3.6189442, 0, 0, 8.391781e-1, 0, 0],
            "parents": [2147483647, 0, 0, 1, 1, 3, 3, 6, 6],
            "right_children": [2, 4, -1, 6, -1, -1, 8, -1, -1],
            "split_conditions": [
              3.05e1, 2.4978626e1, -1.5044188e-1, 3.45e1, -1.4200681e-1, -1.089352e-1, 1.02659904e2,
              -3.7460846e-3, 2.3900528e-1
            ],
            "split_indices": [1, 3, 0, 2, 0, 0, 6, 0, 0],
            "split_type": [0, 0, 0, 0, 0, 0, 0, 0, 0],
            "sum_hessian": [
              1.07399216e2, 5.5466846e1, 5.193237e1, 4.27546e1, 1.2712245e1, 2.4510117, 4.030359e1,
              1.2924522, 3.9011135e1
            ],
            "tree_param": {
              "num_deleted": "0",
              "num_feature": "7",
              "num_nodes": "9",
              "size_leaf_vector": "0"
            }
          },
          {
            "base_weights": [
              2.9854838e-2, -5.027749e-1, 7.420967e-1, -3.8877872e-1, 8.311774e-1, -3.2500887e-1,
              8.864214e-1, 9.0485406e-1, 6.504302e-2
            ],
            "categories": [],
            "categories_nodes": [],
            "categories_segments": [],
            "categories_sizes": [],
            "default_left": [1, 0, 1, 0, 1, 0, 1, 0, 0],
            "id": 64,
            "left_children": [1, -1, 3, -1, 5, -1, 7, -1, -1],
            "loss_changes": [4.187133e1, 0, 5.078768, 0, 3.1035137, 0, 5.8213806e-1, 0, 0],
            "parents": [2147483647, 0, 0, 2, 2, 4, 4, 6, 6],
            "right_children": [2, -1, 4, -1, 6, -1, 8, -1, -1],
            "split_conditions": [
              1.8246188e2, -1.5083247e-1, 5.9e1, -1.1663362e-1, 7.995938e1, -9.7502664e-2,
              8.486864e1, 2.7145624e-1, 1.9512907e-2
            ],
            "split_indices": [6, 0, 0, 0, 4, 0, 4, 0, 0],
            "split_type": [0, 0, 0, 0, 0, 0, 0, 0, 0],
            "sum_hessian": [
              1.0838974e2, 6.2182457e1, 4.6207283e1, 3.128375, 4.3078907e1, 1.741812, 4.1337093e1,
              4.0330406e1, 1.0066895
            ],
            "tree_param": {
              "num_deleted": "0",
              "num_feature": "7",
              "num_nodes": "9",
              "size_leaf_vector": "0"
            }
          },
          {
            "base_weights": [
              -1.4842312e-2, 4.948979e-1, -5.0181884e-1, -4.635078e-1, 7.113514e-1, 7.980128e-1,
              -3.8039744e-1
            ],
            "categories": [],
            "categories_nodes": [],
            "categories_segments": [],
            "categories_sizes": [],
            "default_left": [1, 1, 0, 0, 1, 0, 0],
            "id": 65,
            "left_children": [1, 3, -1, -1, 5, -1, -1],
            "loss_changes": [2.7353622e1, 1.15016e1, 0, 0, 4.4973583, 0, 0],
            "parents": [2147483647, 0, 0, 1, 1, 4, 4],
            "right_children": [2, 4, -1, -1, 6, -1, -1],
            "split_conditions": [
              5.9815228e1, 7.4e1, -1.5054566e-1, -1.3905235e-1, 2.7005093e1, 2.3940384e-1,
              -1.1411924e-1
            ],
            "split_indices": [6, 0, 0, 0, 3, 0, 0],
            "split_type": [0, 0, 0, 0, 0, 0, 0],
            "sum_hessian": [
              1.0819352e2, 5.2853317e1, 5.5340206e1, 9.527295, 4.3326023e1, 4.038905e1, 2.9369726
            ],
            "tree_param": {
              "num_deleted": "0",
              "num_feature": "7",
              "num_nodes": "7",
              "size_leaf_vector": "0"
            }
          },
          {
            "base_weights": [-1.032686e-2, -4.98925e-1, 6.1976e-1, -3.6331558e-1, 6.9524246e-1],
            "categories": [],
            "categories_nodes": [],
            "categories_segments": [],
            "categories_sizes": [],
            "default_left": [1, 0, 1, 0, 0],
            "id": 66,
            "left_children": [1, -1, 3, -1, -1],
            "loss_changes": [2.8225998e1, 0, 3.2246237, 0, 0],
            "parents": [2147483647, 0, 0, 2, 2],
            "right_children": [2, -1, 4, -1, -1],
            "split_conditions": [1.075e2, -1.496775e-1, 8.700464e1, -1.0899468e-1, 2.0857275e-1],
            "split_indices": [1, 0, 4, 0, 0],
            "split_type": [0, 0, 0, 0, 0],
            "sum_hessian": [8.968035e1, 5.0628704e1, 3.9051647e1, 2.5127406, 3.6538906e1],
            "tree_param": {
              "num_deleted": "0",
              "num_feature": "7",
              "num_nodes": "5",
              "size_leaf_vector": "0"
            }
          },
          {
            "base_weights": [-2.3295786e-2, -4.9719e-1, 4.200844e-1, -4.6474925e-1, 6.9586533e-1],
            "categories": [],
            "categories_nodes": [],
            "categories_segments": [],
            "categories_sizes": [],
            "default_left": [1, 0, 1, 0, 0],
            "id": 67,
            "left_children": [1, -1, 3, -1, -1],
            "loss_changes": [1.8955976e1, 0, 1.1703915e1, 0, 0],
            "parents": [2147483647, 0, 0, 2, 2],
            "right_children": [2, -1, 4, -1, -1],
            "split_conditions": [6.95e1, -1.49157e-1, 7.4e1, -1.3942479e-1, 2.087596e-1],
            "split_indices": [1, 0, 0, 0, 0],
            "split_type": [0, 0, 0, 0, 0],
            "sum_hessian": [8.8222984e1, 4.258542e1, 4.563757e1, 1.0681414e1, 3.4956154e1],
            "tree_param": {
              "num_deleted": "0",
              "num_feature": "7",
              "num_nodes": "5",
